1301 32
呗 0.0806701 -0.2193758 -0.019451648 -0.007644363 -0.022040797 -0.03512695 0.066239305 -0.0574251 -0.30550352 -0.3215628 -0.11171796 0.057444897 0.22338894 0.28512615 -0.13985072 -0.33191556 -0.07342857 0.24852161 -0.2040155 -0.07696076 -0.2238162 -0.17528103 -0.15888129 -0.010489457 -0.26531854 0.1536739 -0.12052858 0.49528125 0.26447576 0.26743445 0.10071424 0.158007
花 0.14719069 -0.2582318 -0.0036572693 -0.10143627 -0.09965717 -0.043133005 -0.027304977 -0.17030759 -0.33090615 -0.22943741 -0.17718394 0.20484194 0.1080838 0.26081964 -0.16443233 -0.3415534 -0.027669197 0.12456453 -0.46835944 -0.04632327 -0.052552976 -0.16577463 -0.22577175 0.0071067596 -0.22295716 0.1892286 -0.06709654 0.4021568 0.12183 0.3343284 0.2159723 0.12178288
么 0.18447174 -0.5814822 0.2569163 -0.30423027 0.12721583 -0.07696639 -0.099816896 -0.42645368 -0.070810266 -0.2761722 0.10428701 0.012427219 0.16401263 0.7144411 -0.17653832 -0.024306107 0.16311261 0.3466298 -0.11219031 0.23025653 -0.23714656 0.21232304 -0.31728494 0.064696446 -0.69153595 0.25996107 -0.25057712 0.4818238 0.107630424 0.17426133 0.25454584 0.10953336
还 -0.24720092 0.16648683 -0.5231332 -0.28016528 0.06055621 0.071641244 0.052661918 0.05240955 -0.18487775 -0.34807763 -0.03179735 0.009769745 -0.14982949 0.65417415 0.07755271 0.07335947 -0.15271808 0.5266592 -0.33849984 0.48941267 -0.47661316 -0.10690111 -0.21340865 0.08019046 0.19992678 0.28675172 0.11268015 0.7442662 0.1353978 0.3453152 -0.045388374 0.15431227
借 -0.5004847 -0.02210829 -0.22706635 -0.072187275 0.26750848 0.10364003 0.26448163 0.07185154 -0.19608144 -0.32788375 -0.11210032 0.12847139 0.39642203 0.7273977 0.18324845 -0.32312715 0.073127314 0.34963274 0.47147188 0.07094966 -0.44611105 -0.1935485 0.11314314 0.056130853 -0.41994214 0.123119384 0.13203242 0.9724207 0.14563493 0.19341968 -0.24242015 0.1933299
我 -0.11619294 -0.4243915 0.115261935 -0.011090221 -0.21692127 -0.08093599 -0.10399897 -0.2908895 0.03333553 -0.29366046 -0.23329689 -0.08778521 0.098925434 0.37821814 0.17495541 -0.032290637 0.05371735 0.035352405 -0.5312751 -0.12863152 -0.4134232 0.19432853 0.19687681 0.092643745 -0.26222095 0.41067457 -0.061457817 0.52734107 0.071426675 0.20379618 0.2797349 0.13348395
款 0.20737357 -0.2209687 -0.4741318 -0.026062788 0.19847137 -0.09773746 0.10522743 0.110874094 -0.25543013 -0.23902467 0.07784347 0.14263028 -0.100944944 0.51721764 0.011036271 0.014178623 -0.4545609 0.49954492 -0.3874776 0.29447576 -0.42121506 -0.3582942 -0.55449224 -0.04046969 0.15435806 0.24296713 0.03670893 0.36536238 0.49395397 0.19554986 0.29512998 0.3890737
的 -0.02404203 -0.21822499 0.3089554 0.030607753 0.015756909 -0.20934528 0.010277273 -0.24733779 -0.098474 -0.31030354 -0.1219148 0.15075861 -0.26486996 0.19022782 -0.09856296 -0.13966735 0.025606323 0.18202141 -0.42097232 -0.17830794 -0.36675575 0.081307605 -0.23587143 0.018830653 -0.20890373 0.24368854 0.038521692 0.47701773 0.021455193 0.30077526 0.1114967 0.17383164
了 -0.05014655 -0.43102628 -0.075839505 0.2132204 0.08920285 0.08215061 0.16785373 -0.17027159 -0.19669446 -0.3475115 0.025696281 -0.019376563 -0.038646232 0.42896694 -0.1383193 0.15520461 0.24498664 -0.16858304 -0.6293073 0.22328606 -0.06752917 0.05171486 -0.04524741 0.24986847 -0.38336244 0.21691982 -0.377358 0.61856157 0.11823582 0.17959122 0.07532101 0.115769394
用 0.24438877 -0.52258694 -0.18056403 0.17564476 -0.063790105 0.15775174 0.19302852 -0.46248913 -0.24587692 -0.16780402 0.2069076 0.18234915 0.13204956 -0.11113147 -0.16470626 -0.67547435 0.23322795 0.3768926 -0.6690127 -0.19415571 -0.14774905 -0.009918886 -0.12980747 -0.2538086 0.3238703 0.17151514 -0.28643656 0.343515 -0.26061556 -0.030803172 -0.14221732 0.39687222
* -0.8917006 0.30391684 0.28794014 -0.52826905 -0.114654765 -0.5651504 0.64975643 -0.1753428 -0.34751987 -0.6889005 -0.27968118 -0.06642308 0.22778656 0.45866203 -0.43584192 -0.15716709 0.124479726 0.039337523 -0.79306984 0.08686957 -0.5574431 0.22882025 0.02696121 0.051169008 0.19812845 0.19102448 0.29781574 0.08242546 0.44204867 -0.23513661 -0.078841835 0.6779876
不 0.1378208 -0.14972074 0.3147755 0.006142294 0.09168388 -0.016033484 -0.3388653 -0.8185127 -0.19123846 -0.12600689 0.10663721 -0.045539353 0.31078544 0.3849411 -0.3025577 -0.30261976 0.2503783 0.21185927 -0.28233927 -0.029654369 -0.019935653 -0.115208894 0.039817024 -0.007791734 -0.022341888 0.12418765 -0.20913284 0.6843873 0.19241928 0.00016338984 0.43779793 0.08113822
， -0.05906293 -0.24326125 -0.02070484 0.03507085 0.026075099 0.07045139 0.08353678 -0.34185165 -0.16093309 -0.24162701 -0.031748846 0.0030128423 -0.20819302 0.46762675 -0.062471956 0.0958324 -0.014292765 -0.09937034 -0.60779214 0.10554469 -0.15270509 0.0041037193 -0.020651279 -0.009443804 -0.10484836 0.2122636 -0.07225215 0.52664 0.13548838 0.2859589 0.13760595 0.30574256
怎 0.017075349 -0.32973436 0.39865714 0.22969182 0.027962452 -0.09484151 0.0025555254 -0.12246575 0.0005920776 -0.4187633 0.014334868 -0.11873804 -0.13631451 0.48289979 -0.34985802 -0.20426801 0.1539497 0.046453062 -0.004452723 0.565654 0.072840005 -0.11124752 -0.38320205 0.64991903 -0.86653996 0.36850426 -0.4176011 0.6042097 0.08507902 0.23383416 0.46022254 -0.017262403
吗 0.24944144 0.21237984 0.1491842 0.13988383 0.025168229 0.12328143 -0.22106336 -0.10136967 -0.39256823 0.0077216714 -0.23769723 0.1188245 0.016904224 0.051626947 -0.38415712 -0.48496616 0.27381432 0.24523236 -0.29869398 -0.012449466 0.3177294 -0.47463244 -0.51495147 -0.4203955 0.31690517 -0.22872147 -0.0030431845 1.1429477 0.6244936 0.5704154 -0.09071195 0.3007001
什 0.16478337 -0.4776517 0.30603093 -0.4375896 -0.0037449314 -0.15610415 -0.10762778 -0.46553484 -0.27341935 -0.20597365 0.2506264 0.05118985 0.42032948 0.7951699 -0.12731533 -0.035879143 0.042099144 0.44590136 -0.2681362 -0.061103694 -0.60131127 0.36798623 -0.1541459 -0.2152804 -0.25119522 0.4044334 -0.38940236 0.24281392 0.1399083 0.202265 0.1333661 0.20072927
是 -0.14970681 -0.124702156 0.22767037 0.38385215 0.03376463 -0.07550232 0.019827055 0.0925258 -0.079229616 -0.23672287 -0.026957478 0.040621486 -0.43608886 0.60144186 -0.041729473 -0.07481429 -0.14232808 0.31544185 -0.6029789 0.09054451 -0.45422947 0.2497743 -0.076387525 -0.16851301 0.017770177 -0.04068842 0.057801425 0.078419685 -0.00012628565 0.2920932 0.032838028 0.566334
期 -0.25268528 0.27616554 -0.4372708 -0.5752521 -0.1951273 -0.10993059 0.3678743 -0.1431375 -0.61584044 -0.56946087 -0.1582207 0.34770784 -0.06134521 0.35451302 -0.29983062 -0.34970656 -0.32517985 0.34807235 -0.26429504 0.40765253 -0.22933257 -0.5766199 0.005345333 0.5170659 0.017065525 -0.36651 -0.024231495 0.80457616 0.04869405 -0.35423058 -0.15190631 0.42678678
额 -0.43245512 -0.46583265 0.23681031 -0.2624103 -0.05990861 0.6316777 0.23312256 -0.0023097084 -0.0927649 0.26089644 -0.45774767 -0.41952428 0.34169513 0.60358924 -0.49177614 -0.35329232 -0.1715773 0.5222108 0.006107715 0.16872624 -0.5344218 -0.138259 -0.48293045 0.36179358 -0.13825655 0.1447858 0.32078248 0.2075519 -0.18809445 0.7092464 -0.28124285 0.58013237
能 0.05745902 -0.5544192 0.063469276 0.47037584 0.13293234 -0.2713301 0.2272649 0.43746865 -0.5518479 -0.4517117 -0.26294 0.044489615 0.2977427 0.23529534 0.011842714 -0.5437738 0.2843899 0.24978042 -0.47304475 0.36479726 -0.20594865 -0.32823455 -0.28458562 0.055774853 -0.39260674 0.36477986 -0.5291853 0.3575089 -0.31903127 0.07518958 -0.36929446 -0.011324779
可 0.027746722 -0.27988303 -0.08490684 0.48558977 -0.11657766 -0.17472932 0.27766678 0.27591512 -0.5436767 -0.12536813 -0.5952714 -0.026069876 0.1835784 -0.096123874 0.02414245 -0.57504475 0.25491264 0.26672372 -0.39293975 0.19904141 -0.32679343 -0.5733077 -0.44584537 -0.3139417 0.25686276 -0.14661527 -0.15266138 0.6881701 0.05333222 0.34480307 -0.15150543 -0.17886756
以 -0.05305919 -0.260418 -0.2335651 0.5439877 -0.11270467 -0.24952787 0.28212774 0.41818982 -0.71509385 -0.10143285 -0.5516152 0.0049690753 0.10726929 -0.09843051 -0.033171635 -0.6034744 0.30000895 0.17176029 -0.4240991 0.26387814 -0.21271774 -0.5261231 -0.43098968 -0.25504982 0.1946507 -0.009053993 -0.16303095 0.77540153 0.026942957 0.43750238 -0.23805827 -0.25963375
有 -0.14371537 -0.306073 0.2502345 -0.10515492 0.13261573 0.37192312 -0.14578724 -0.011170097 -0.41378072 -0.50664985 0.39157328 0.044324297 -0.23007834 0.4530808 -0.15878914 -0.29947034 -0.3477123 -0.00055753975 -0.10523954 -0.29910508 -0.23201798 0.36123902 -0.19475424 0.21330748 -0.081906654 0.25488064 0.34871987 0.62898296 0.060903706 0.275252 -0.2685961 0.48925307
付 -0.19024608 -0.1976154 -0.17971143 0.3048034 0.04896858 0.10071589 -0.15460478 -0.42484266 -0.44200668 -0.1829064 -0.20162891 0.6671433 0.04702828 0.12416789 -0.4052923 -0.26451203 -0.1525911 0.16484682 -0.5204387 0.077471755 0.19181329 -0.05907991 -0.4409901 -0.30730635 0.16182293 0.5736373 0.20544636 0.21876594 -0.47541842 0.27215162 0.48773652 0.13434967
为 -0.13525794 -0.15113612 0.38054535 0.13748239 0.028127732 -0.08410995 -0.24292606 0.13440485 -0.31558508 -0.6172212 0.27864042 -0.31637633 0.4224458 0.47349888 -0.36190504 -0.06574913 -0.1244387 0.29834366 -0.66175795 -0.073656216 -0.53868145 0.14931203 -0.13548094 0.21898393 -0.45470983 0.83096594 -0.4605229 0.22286695 -0.040431116 -0.2244201 0.07188839 -0.024245456
蚂 -0.30198118 -0.021422325 -0.24742436 0.12892722 0.1628796 -0.13779792 0.3827938 -0.06042041 -0.08765398 -0.38522717 -0.15292516 0.09822244 0.54065615 0.48669127 0.10131048 -0.57241696 -0.035026096 0.35156187 0.47954297 -0.12938778 -0.55636907 -0.07576845 0.00042708032 0.0842378 -0.48081547 0.15597047 -0.016612971 0.7369148 0.4459091 0.15671483 -0.106241845 0.06279074
蚁 -0.22613554 -0.07576984 -0.25390884 0.066395104 0.10085251 -0.07209931 0.34633586 0.08224971 -0.064980835 -0.5352748 -0.04961496 0.051467348 0.5411888 0.44723117 0.042540174 -0.491599 -0.03190272 0.39916787 0.46019074 -0.13874637 -0.5076312 -0.10829667 -0.012210448 0.06988542 -0.5254627 0.10669764 0.0740108 0.8066439 0.45239648 0.18262695 -0.08615376 0.10021893
分 -0.24957651 -0.4025673 -0.3686026 -0.5427264 -0.15303537 -0.39245936 0.6016851 -0.098233745 -0.2278307 -0.20752016 -0.41837674 -0.18577154 0.15971504 0.049586818 -0.27806875 -0.41052908 -0.8194547 0.5581713 -0.41432834 0.23437779 0.1431924 0.1181312 -0.37822774 0.09391075 0.32552072 -0.23454703 -0.039779454 0.76626945 0.02642101 -0.0992079 -0.27651376 0.379299
度 -0.389857 -0.9589709 0.08183904 -0.56252205 -0.36408025 0.3798027 0.19982146 0.08243269 -0.25155488 0.69340193 -0.31695586 -0.42717117 0.5919498 0.41880628 -0.49540022 -0.28177506 -0.31900504 0.5267509 -0.32937998 0.2268755 -0.7267024 -0.15630214 0.092668846 0.47893253 -0.61564493 -0.34331986 0.48225772 0.45809337 -0.08765921 0.22081284 -0.38193935 0.31875095
开 0.41743708 -0.4848308 -0.32429492 0.7485673 -0.91831744 0.0026285064 0.3202566 -0.29102835 0.058030453 -0.40111294 0.046654735 0.2097238 0.7304084 0.72726536 0.77913857 -0.42991295 -0.16872762 0.40868202 -0.15474029 -0.22977044 -0.12659808 -0.079957865 0.2801004 0.027210735 0.2249297 0.54407203 -0.18423265 0.2744863 -0.31121972 -0.28801766 0.2987215 0.75234103
没 -0.11330967 -0.14787915 0.40818608 0.12329703 0.15522768 0.19271371 -0.13027371 -0.51552266 -0.28416395 -0.20978607 0.44816518 -0.2780082 9.047296e-05 0.54257554 -0.27531302 -0.056273747 -0.1749508 -0.34189114 -0.24966578 -0.03509274 -0.33325025 0.28283715 -0.41589916 0.4746525 -0.2902172 0.45253718 0.12104737 0.64480305 0.33586806 0.070053704 -0.18097845 0.11690079
支 -0.10357893 -0.5528552 -0.2235984 0.6019987 0.10031452 0.011493154 -0.18086872 -0.323528 -0.3358295 -0.30397382 -0.2978722 0.6814738 0.4075765 0.22150618 -0.35227668 -0.2998701 -0.017881826 0.20765206 -0.6567776 -0.17185463 0.06971322 -0.03746027 -0.4658418 -0.22859585 0.22842503 0.30849463 0.2050007 -0.12600741 -0.3376428 0.31255156 0.6506342 0.25706482
钱 0.19659765 -0.73949 -0.0694847 0.28691655 0.17304151 -0.06808492 0.3904118 0.052786596 0.33133113 -0.026324587 0.1225852 0.1327601 0.09188094 0.5099519 0.016519262 -0.09145941 -0.25488245 -0.012329214 -0.4882728 0.42038566 -0.6240214 -0.078241006 -0.13459623 0.3553494 0.5418938 0.5558394 0.40303367 0.4061435 0.33117497 0.36400083 0.3395366 0.13443813
一 -0.28767118 0.14837117 0.27524683 0.22235008 -0.41437235 -0.415066 -0.14147986 0.28237674 -0.78946674 -0.6392806 -0.62970454 0.18780273 -0.014320123 0.80426025 -0.20039865 -0.16510332 0.002305179 0.11571394 0.20971912 0.20707788 0.12977222 0.095993556 0.12524468 0.32341957 0.5557544 0.07205814 -0.002603717 0.8151717 -0.22043525 0.52301633 0.27335486 0.48851302
通 0.17466964 -0.15632798 -0.26228955 0.787856 -0.82708085 0.2501976 0.49813443 -0.5460384 -0.5882353 -0.118628494 0.592423 0.43114102 0.07138843 0.43370762 0.27519006 -0.8702879 -0.19672447 0.18934307 0.055376366 -0.12542169 -0.042535968 0.28805277 0.8212555 -0.21063067 -0.15806533 0.9015653 0.154967 0.5396542 -0.37405458 -0.1388339 0.13858399 0.29816326
个 -0.2339216 -0.20255484 0.2077758 0.41307837 0.038189113 -0.37462774 0.12697966 -0.4746538 -0.5853068 -0.70898855 -0.60284144 0.35631976 0.16449536 0.2092572 0.27967194 0.15818903 -0.037943482 0.43117395 -0.71226966 -0.07579425 0.23734206 0.38008142 0.062252034 -0.024541434 -0.08842807 0.059425436 0.785056 0.79368156 0.023835512 -0.021381624 -0.16179997 0.47005007
在 0.17901118 -0.4230808 -0.1497599 0.25503954 0.23777407 -0.49915597 0.20336851 -0.5474277 -0.22385558 -0.57389283 -0.20443475 -0.22082072 -0.029793179 -0.038788427 -0.08502158 -0.48537126 0.08052958 -0.477055 -0.38492325 0.108762406 -0.5460568 0.092327915 -0.08180087 -0.32103688 -0.23441361 -0.045469817 0.37674037 0.44726864 -0.12486615 0.4628839 0.075403444 0.32016614
宝 0.22208017 -0.23361166 -0.13064425 0.797783 -0.060637034 0.12951086 -0.58190906 -0.69952613 -0.30843973 -0.4414762 -0.43590128 0.41085187 0.24854217 -0.29085127 -0.6513601 -0.28725365 0.0474131 -0.035521477 -0.78671855 -0.10205564 -0.50907296 -0.455627 -0.0035735953 0.5583152 -0.19576703 0.4006942 0.65675974 0.16064551 -0.21926345 0.008356595 0.48547924 0.39156583
提 -0.30628532 0.13366029 -0.3620109 -0.22024164 -0.46387133 -0.010423247 0.2840627 -0.09625001 -0.622285 -0.14461319 0.61431885 -0.6035698 -0.43137187 -0.0054953345 -0.2786579 -0.4794114 -0.6878177 0.7793798 0.015896777 0.1328702 -0.70209026 0.14374782 0.2246395 -0.26210776 -0.27416474 0.20559345 0.4076215 0.9777883 0.004387078 0.6618501 0.07406172 -0.30372834
到 0.33035713 -0.52509296 0.1660553 0.09782585 0.104916565 -0.20449238 0.51652944 0.016303558 0.103520036 -0.4808171 0.015916644 -0.010032762 -0.10796967 0.41730565 0.40765405 0.103596404 0.01801957 -0.09343742 -0.29486433 -0.16181213 -0.73630494 -0.17558444 -0.8872473 0.39882597 0.2071804 0.32713884 0.54133415 0.5929198 -0.10871743 0.45355678 0.09419401 0.35593024
时 0.35611984 -0.093817875 0.29592335 -0.3725993 -0.59938353 -0.3317261 0.13324086 0.017932333 -1.0248815 0.36146477 0.05810482 0.16051054 0.25016177 0.45199502 -0.33765736 -0.35207784 0.33833122 0.36089823 -0.38957414 0.25398108 -1.0891087 -0.10423448 -0.29739746 0.26952705 -0.44664642 0.06599016 0.11905882 0.38171634 0.012304911 -0.09462045 -0.2951664 0.07974047
号 -1.052943 -0.77619046 -0.5350394 0.58316696 -0.37060845 -0.72235465 0.11175612 -0.7181417 -0.19881098 -0.42279878 0.0078118774 0.578715 0.13014305 0.40120965 0.36772963 0.5336293 0.7032304 0.3733063 -0.57485443 0.015904855 0.38213015 -0.12318104 -0.2630617 -0.04218467 -0.39436498 -0.19545667 0.9206004 0.51309705 -0.17473653 0.22571324 -0.01454164 0.5953399
月 -0.6439885 0.48817933 -0.25661063 -0.5269287 -0.2298563 -0.63546747 0.02218438 0.20951413 -0.514892 -0.40396306 -0.5421599 0.35061488 0.40874955 0.6508168 0.12366434 0.004836522 -0.07402788 0.55164385 -1.3155093 0.49858293 -0.5502485 0.18653323 0.2631421 0.61467457 0.03587534 0.0096769845 0.9999003 0.696249 0.17087597 -0.61594546 -0.23937096 0.09934069
多 -0.2526805 -0.37140685 0.89571345 -0.025275903 -0.36454448 0.273707 0.94290847 -0.18502183 0.07707721 -0.33060455 -0.27241158 0.72043926 0.1361113 0.4016266 -0.17551033 -0.5585125 -0.08038216 0.5496836 -0.44453076 0.6477526 -0.010780217 -0.08936261 0.17706275 0.0015228863 0.21985584 -0.1901518 0.16984639 0.54848546 0.8419035 0.38961035 -0.57588434 0.09588397
账 -0.20898 -0.15549996 0.016714701 0.7291704 -0.5477044 -0.6081675 -0.054375235 -0.27037463 -0.7363993 -0.5474383 -0.11526847 0.8067522 0.18847713 0.10362383 0.31551886 0.34973222 -0.3728948 0.011857185 -0.37479687 0.050708693 -0.48445797 0.26098865 -0.5403164 0.70563215 -0.35660884 -0.05383427 0.463559 0.20400442 -0.002187998 0.38404867 0.26966003 0.11824885
收 -0.31755543 -0.5013154 0.32603592 0.14146566 -0.46356654 0.14726934 0.24512735 -0.26884186 0.2689314 0.26792395 0.96788263 0.83324635 -0.09151648 0.6314859 0.28669322 -0.30202886 -0.41186696 0.149332 -0.17506239 0.3459513 0.4200255 -0.9030405 -0.4129 -0.46370155 -0.11474194 1.0827205 0.40840957 0.76656693 -0.39721906 -0.4011235 0.16431533 0.35461795
要 0.05940459 0.106957875 0.35019225 0.55175984 -0.46639487 -0.16382253 0.5123049 0.115486205 0.45682526 -0.3379266 -0.102389336 0.078658834 -0.35345542 0.68464977 -0.31254768 -0.23746276 -0.2863291 0.37663892 -0.7340777 0.44497725 -0.067839175 -0.19263014 0.12403519 -0.36869165 -0.3579808 0.19936383 -0.07970026 0.312514 0.12119565 0.3806476 -0.23219381 -0.025639754
费 0.18276049 -0.3955376 -0.14421101 -0.34972697 -0.0058708624 -0.47961673 0.06556781 0.59575063 -0.13505758 -0.2511278 1.2138351 0.7006885 0.22649376 -0.13218288 -0.39950854 -0.745702 -0.09599765 0.105824634 -1.1163397 0.8038072 0.083185986 0.4192039 -0.1989019 -0.22661424 -0.3016836 -0.124198936 0.3261507 0.24945734 0.27255505 0.7412582 0.41883326 0.2393651
退 -0.5385336 -0.11699786 0.2031795 -0.53513914 -0.09584906 0.3809158 0.2542194 -0.6007343 0.041303013 0.06659342 0.7661044 0.2928927 -0.11577102 -0.13127932 0.15393092 0.48378617 -0.9372196 -0.72843975 -0.8749253 0.993451 -0.6189721 -0.16124777 -0.52031887 -0.06045421 0.038562823 0.5124466 0.045068506 0.6706766 -0.49143773 0.37168503 0.6539467 0.10034547
后 0.064387746 0.18500079 -0.12164878 0.07867387 -0.10298122 0.111570716 0.34558806 -0.4426457 -0.696557 0.1145296 -0.1286617 -0.14300574 0.052880507 0.24058351 0.17711924 0.18815452 -0.2946943 0.1314389 -0.6575076 0.49203885 0.061639342 -0.56828684 -0.20095055 -0.06821223 0.069384776 -0.22478823 -0.3686943 0.8657994 0.39518264 0.3221701 -0.019552201 0.42083642
前 -0.5516938 0.20437463 -0.48465997 0.049251884 -0.5373731 -0.45308638 -0.20317225 -0.7511631 -0.0725834 -0.5321333 0.3108281 -0.7416942 0.041173514 0.07842413 0.16992608 0.068718754 -0.28540984 0.65272164 -0.38521963 0.44044113 -0.05731515 -0.4707857 -0.24614497 -0.043002702 0.13012092 -0.25538278 0.108069 0.98225695 0.42411104 0.13744292 0.018230326 0.15688917
使 0.084516205 -0.36159647 -0.47718322 0.0020134726 -0.15571329 -0.04144241 -0.051827498 -0.5245239 -0.6318607 0.007664328 0.0191256 0.31638986 0.19770426 0.18217927 -0.09679872 -1.0204116 0.21984328 0.28261063 -0.40168872 0.022442864 -0.08466272 -0.25500515 -0.09598761 -0.17045704 0.29155737 0.09688959 -0.5412992 0.17796578 -0.60484874 0.16228989 -0.23247012 0.5193792
卡 0.18043393 -0.5227946 -0.66746676 0.7866479 0.014457289 -0.045907814 -0.2709027 0.09612584 0.7541787 0.3711319 0.73654914 0.894884 0.44525602 0.45769358 -0.9102398 -0.16133544 0.10229826 -0.10289502 -0.8368534 -0.37868506 -0.8047877 -0.60422 0.07990104 0.017345244 -0.28490958 0.72907186 0.4195865 0.78858364 0.31751052 -0.29917482 0.20754105 -0.21647725
会 -0.03602915 -0.1258663 -0.18944386 0.090549745 0.0042116665 0.44920397 -0.053442646 0.40301642 -0.44321987 0.046246383 0.59558684 -0.06265762 -0.22990485 0.14638317 -0.12044551 -0.32850906 0.031121988 0.27859434 -0.22306325 -0.09985175 -0.13627107 -0.19341345 -0.41883683 0.61707497 -0.16244017 -0.107805505 -0.16910768 0.7073063 0.54842293 0.5308369 -0.13944529 1.0523225
手 -0.16915181 -0.33894223 -0.372251 0.21618113 -1.1471345 -0.8559877 0.03769007 0.111341015 0.4501008 -0.68040603 0.34303197 -0.28439862 -0.21179655 0.30038637 -0.6785079 -0.092684284 -0.023534894 0.57016945 -0.83850795 0.047471702 0.58626527 -0.37193975 -0.20251077 0.3788485 0.11554795 -0.0709788 0.124194205 0.38774914 0.012261569 0.35887063 0.75122553 0.7740148
信 -0.7677805 -0.14391917 -0.1789657 -0.011443012 -0.4107181 0.36023822 0.16187368 -0.012837474 0.16279049 0.5846026 0.5016859 0.39792854 0.1878107 1.0814474 -0.2978194 -1.1205406 -0.1160586 0.35375828 -0.16951177 -0.77856785 0.54760075 -0.4914366 -0.19467911 0.5530245 0.52220565 0.9734944 -0.4215972 0.6325677 0.3329033 0.41251504 0.028313959 -0.037812363
里 -0.03210034 -0.15921254 0.14126068 0.42720014 0.22576846 0.1260788 0.14260757 -0.69654334 0.77117646 -0.09335352 -0.22201611 -0.126679 0.14025539 -0.051695805 -0.32656378 -0.43963936 -0.22239487 -0.6716684 -0.33946648 0.20184146 -0.6508898 0.229949 -0.8080399 0.28155854 0.26658627 0.5546825 0.5290476 0.38210192 0.24487388 0.5904031 0.36955 0.25532216
码 -0.19703083 -0.2748021 -0.1578087 0.49775752 -0.33830595 -0.26847985 0.3984666 -0.41580635 -0.08740666 -0.34044364 0.58306557 0.5877327 -0.013866764 0.46566275 -0.3964432 -0.37612805 0.3575866 0.43551698 -0.5944768 -0.21146302 0.4379764 -1.2677343 -0.022445602 0.33321196 -0.19700965 0.75365907 0.7448254 0.7404821 -0.60590863 -0.44296235 1.100415 -0.20945786
现 -0.52395874 -0.0896077 0.14389277 0.20197275 -0.022288747 -0.8727803 0.19443145 -0.47321385 -0.039862007 -0.3154238 0.17536375 -0.48641714 0.60269684 0.3785017 0.03221682 -0.22318159 0.14710152 -0.42836097 -0.47314718 0.3749283 -0.22526836 -0.07613009 -0.081624396 0.16643344 -0.02931185 0.09830522 -0.04743421 0.412714 -0.15761921 0.54654604 -0.0988432 0.14718115
扣 0.011239172 0.56649613 -0.47551417 0.024859652 0.09898603 0.7736094 -0.1965858 0.31507608 0.21662277 -0.1926209 0.544988 0.45571902 -0.23736174 0.24182408 -0.5682379 -0.117768615 0.26800758 -0.17359054 -0.56460875 0.8454713 -0.59055513 0.31391913 -0.27022758 -0.14308743 0.090722114 0.8977938 0.45081192 0.622593 -0.25866064 0.45042294 -0.045446433 0.8872298
示 -0.29142803 -0.14421561 -0.023292745 0.63536656 -0.2956553 0.46279114 -0.36395505 -0.7137387 -0.28840938 -0.9521647 0.4361638 -0.589205 0.285643 0.8591065 -0.3211034 0.2831894 -0.68276936 0.32159075 -0.4397906 -0.20687556 -0.6781044 -0.048165187 -0.41603202 -0.13453738 -0.06681792 0.09826608 0.09248255 -0.038687475 0.17652601 0.33754426 0.14691904 -0.04780653
天 -0.36972782 -0.5428042 -0.6566916 -0.35492966 0.044078823 0.1684262 0.079707734 0.03877266 -0.2665062 -0.503855 0.033740338 0.53390473 -0.20007718 0.216082 0.2750539 -0.33455944 0.14108112 -0.25627446 -0.31729057 0.59731174 -0.7210033 0.016411701 0.053897128 -0.07449743 0.18326391 -0.37730986 0.4247022 0.94808877 0.974974 -0.75983405 0.030102378 0.47438395
少 -0.54049784 -0.059324034 1.4988865 0.06926396 -0.53594595 0.21186851 0.8855134 -0.47130966 0.43998227 -0.1548183 -0.17856236 0.5594468 0.35268414 -0.04511379 -0.5678265 -0.9694809 -0.1636705 0.7371905 -0.6688058 1.0621666 0.23187698 -0.0040156846 0.030091686 0.2554756 0.49507532 0.0872235 0.24471912 0.7069436 1.2110586 -0.08094018 -0.5682386 -0.33270535
这 -0.4309889 0.07954769 0.45504004 0.31398237 -0.11812025 -0.46790162 0.055374004 -0.17662321 -0.29856998 -0.35611814 -0.27108353 0.21372363 0.12129371 0.43218625 0.35429135 0.023654686 -0.19303234 0.06974534 -0.68669724 0.34065434 0.030472942 0.70839447 0.083550505 0.4299078 0.06032023 0.5955478 -0.008395223 0.39325604 -0.10914887 0.4412811 0.21135089 0.2365804
商 -0.2470375 -0.915357 0.72508806 0.78310025 0.12524576 -0.6654643 -0.17195351 0.21001542 0.055989977 0.41947052 0.004206809 0.29695433 0.7933493 -0.15375589 -0.50668937 -0.10960765 -1.5288099 0.09708227 0.039402056 0.20326568 -0.06971529 -0.015363158 0.059049275 -0.5998855 -0.112439804 0.46914947 -0.42187673 0.75955683 0.33301786 0.086803555 0.6012709 0.6315411
行 -0.2675818 -0.17423993 -0.40274695 0.7058564 0.11138311 0.081697024 -0.28396046 0.26812458 0.7595819 -0.059434522 0.19968778 0.53526515 0.060183924 0.7144907 -0.9287036 0.28319708 0.23410265 0.012353941 -0.1374316 -0.2584524 -0.9239113 -0.14978068 -0.18793155 -0.17257151 0.30537787 0.6034775 -0.17055123 0.9601148 -0.15629664 0.4259303 0.15097053 0.2469782
关 0.09077494 0.60081685 -0.48008323 0.9475436 -0.2711347 0.2985481 0.40234622 -0.2947921 -0.18663307 -0.09891474 0.2403026 0.12694123 1.0820432 0.112250045 0.7737063 -0.22789578 -0.34305406 0.4384162 -0.42527583 -0.19139816 -0.10704383 0.57138777 0.8648004 0.42538184 -0.36321998 0.29440376 -0.26013562 0.73073685 -0.25950062 0.5378679 0.5199026 0.8959865
上 -0.33901277 -0.42884064 0.13981873 0.511586 -0.10280438 0.1157593 -0.13110171 -0.6295719 -0.026528308 -0.94175434 -0.38613632 -0.29654396 -0.04528356 0.14844356 -0.27260032 0.0108916005 0.14311205 -0.3638824 -0.11160586 0.17443019 -0.10155605 0.2517778 -0.40052697 -0.039982438 0.41754723 0.32135597 -0.036506917 0.7074435 -0.015616218 0.18037698 0.06904527 0.18268552
逾 -0.9821991 -0.69270504 -1.0465151 -0.15808131 -0.17041107 -0.09109729 0.2118647 -0.2762389 -0.15063623 -0.03181338 0.37937766 0.14529437 -0.02656694 0.43976343 0.57027197 -0.15551992 -0.36233518 0.22828084 0.111250535 1.1365073 -0.10243937 1.032204 -0.14637914 0.32297382 0.13113187 -0.36722377 -0.60135555 0.9423421 0.40545967 -0.47370183 -0.6493162 0.8543723
动 -0.06436878 0.61024874 -0.4100062 0.388923 -0.16990913 0.41562378 0.005525272 0.25133297 -0.015174962 0.3682254 0.22309643 -0.23051144 0.412041 0.047685534 -0.43174303 -0.1780897 0.20904084 -0.17285368 -0.0016984526 1.0356209 -0.33206058 -0.027533278 -0.66983783 -0.15428895 -0.74122834 0.53570926 0.7458059 0.66120887 0.91827124 0.30941007 0.42152423 1.0117621
机 -0.42066917 -0.7157234 -0.4134506 0.43792206 -0.973688 -0.96282446 0.24214341 -0.54258245 -0.064026535 -0.27085492 0.53427124 -0.18245897 -0.07641021 -0.0004770783 -0.9761831 0.066466026 0.2187757 0.1018621 -0.7032581 -0.34893653 0.31365564 -0.11512331 0.1587842 0.43657777 -0.2762077 -0.33116725 0.30189273 0.5426942 -0.0324222 0.2029175 0.85985804 0.35317522
显 -0.25693068 -0.17770834 -0.1145032 0.57346874 -0.15645178 0.48812512 -0.23816164 -0.6771525 -0.56513846 -0.9061534 0.47516558 -0.33658096 0.09637318 0.72204024 -0.40755868 0.2577539 -0.715359 0.15730315 -0.45376334 -0.06264151 -0.85691154 0.37785855 -0.279717 -0.0789347 0.0135034025 0.33313614 0.13489315 -0.028722543 0.08966271 0.2607668 0.31719595 -0.18403551
已 -0.27214885 0.05999053 -0.25528455 0.39795747 -0.3964966 0.022922644 0.19464815 -0.60787123 -0.1717479 -0.57739663 -0.045291025 0.22418639 -0.048586115 0.45320383 -0.09419226 0.6122945 -0.63402134 -0.28711593 -0.8524741 -0.001499718 -0.25540444 0.2357586 -0.39718664 0.21604168 -0.52765393 0.87905484 -0.6296116 0.5090858 0.435717 0.26950687 -0.30377424 -0.023646936
如 -0.5087832 0.027202558 -0.17754336 0.56261 -0.3224046 -0.4126807 0.14512548 0.54957277 -0.15188773 -0.37588117 -0.70193714 -0.09959396 -0.5488345 -0.32925716 0.16687381 -0.55617166 -0.48542282 -0.10317696 -0.33011457 -0.00037693014 0.04665914 -0.6475368 -0.7236403 0.12809435 -1.5393993 0.83683664 -0.47437364 0.6869952 0.030138187 0.2729611 -0.12539378 0.54948366
银 -0.4000585 -0.14814764 -0.48680893 0.59908295 0.05517919 -0.030843936 -0.48343417 0.10852401 1.1903663 -0.015664302 0.1554498 0.49296588 0.35657713 0.7323444 -0.8599234 0.4337403 0.10808267 0.025672536 -0.089534976 -0.29839766 -1.0252264 -0.2587621 -0.22860798 -0.17506896 0.31669304 0.7845909 0.022572322 1.1247537 -0.16683312 0.22067586 0.120488144 0.48813966
单 -0.38122275 0.3874709 -0.13554837 -0.924803 -0.19986002 -0.15723443 -0.073941395 -0.341372 -0.42136744 -0.49316308 -0.38369948 0.8633574 0.2717705 0.4795874 0.2720082 0.09285164 -0.59312075 -0.1792042 -0.70152116 -0.009302365 -0.22912656 0.29687935 -1.0070925 0.33149797 -0.05743572 -0.2563742 0.20329718 0.6057785 -0.56014705 0.4974688 0.16647962 -0.12422417
自 -0.097895615 0.6946432 -0.3914457 0.31133172 -0.21264979 0.42193332 -0.13800105 0.10274984 0.28731284 0.4092577 -0.06715386 -0.060435344 0.4257693 0.075846285 -0.2794978 -0.041665655 0.3421724 0.3136675 -0.18569103 0.7255967 -0.50593436 0.092917964 -0.58697355 0.14341405 -0.3812811 0.690301 0.44961506 0.60572755 0.72292525 0.32179767 0.5149353 0.9700488
请 0.32420528 -0.2914603 0.0036310547 0.2663384 -0.7982172 0.65778774 1.0747855 0.1777757 -0.592246 -0.05869123 -0.24758181 -0.19545045 0.13249601 0.4270398 0.25940183 -0.1488256 -0.5020306 0.22645971 0.13577056 -0.095413946 -0.60172904 -0.391607 -0.10448965 -0.19377184 -0.23233756 0.24532914 -0.21158747 0.81519705 0.2970946 -0.09477068 0.81874543 -0.08314618
余 -0.7194872 0.044874024 -0.15532652 0.1618841 0.25642395 0.3884402 -0.5295269 -0.31069475 -0.06446897 0.30488834 -0.4246991 0.4721424 0.29005694 0.063640684 -0.8120626 -0.2647476 -0.32744384 0.12268423 0.032712907 0.8533927 -1.2146486 -0.4242404 0.0013124769 0.60094965 0.10358987 0.6436485 0.6863355 0.012575013 0.12759185 0.9092061 0.22689804 0.7029187
息 -0.1761013 0.15735787 -0.42676052 -0.35415828 0.60773027 -0.7126971 0.5503474 0.58645535 0.73432064 0.041576996 0.13310437 0.05641619 -0.49241194 0.85331833 -0.057922855 -1.1376351 -0.5369004 0.43274012 -0.86950874 0.056013323 -0.062377114 0.083042584 -0.13676023 0.7954799 -0.07679911 -0.5326503 0.29555422 1.0100281 0.22044832 -0.4157087 -0.12523656 0.35147473
候 0.053925563 0.0668923 0.56807554 -0.30374697 -0.96935767 -0.56136847 -0.21797828 -0.35590506 -0.6846568 0.26134062 0.11929863 0.13621324 1.0066769 0.60933703 -0.085454285 0.031050013 0.7213805 0.24672711 -0.27928537 0.96858025 -0.82975966 -0.19688237 -0.69720376 0.19744529 -0.11632893 0.5569429 -0.6297571 0.48970303 0.27274075 -0.03822951 -0.3103606 -0.13807155
次 0.351853 -0.23340178 -0.35611027 0.16521902 -0.36478508 0.3946388 0.13578731 0.22491163 -0.6480894 -0.5560702 -0.65173894 0.21706758 0.31815636 0.5033529 -0.6152383 -0.06956331 -0.43140033 0.35241684 -0.58180356 1.0203229 0.07647548 0.0415567 0.2679669 -0.2919357 -0.13093871 -0.5985777 0.23957731 0.93008 0.38010368 -0.31839353 -0.21298623 -0.0017830252
何 0.049953654 -0.076619595 -0.15667364 -0.22375426 -0.23394473 -0.24428113 -0.1000301 -0.694015 0.06065662 0.06423054 -0.7678937 0.0953423 0.1010695 -0.068642505 -0.06497111 -0.26725596 -0.48717254 0.31447172 0.0024024535 -0.4276696 0.19811743 -0.531437 -0.7216268 -0.5504558 -1.3814474 0.5245049 -0.2539157 0.9986092 0.6012945 0.7404909 0.18776569 0.4360797
买 -0.6151995 -0.9604091 0.21510823 -0.47949424 -0.4763491 -0.49075013 0.20796138 -0.70166796 -0.30845517 -0.4149495 0.12292273 0.22922099 -0.57348764 -0.5470151 -0.5640004 -0.37953293 -0.44029036 -0.4227669 -0.5231856 0.24160497 -0.3877057 0.2309842 0.24594326 -0.6245631 0.6920797 0.395572 -0.49797603 0.5794703 -0.49622905 0.076592244 0.3176706 0.64005035
消 0.26062506 -0.010677454 -0.2203643 -0.42197904 -0.65495765 0.5943449 0.32895762 0.4605145 0.33801192 -0.30503863 -0.28440535 0.08655718 0.28003392 0.19261907 0.13497284 -0.6313905 -0.10688172 0.09092997 -0.44143465 0.07726874 0.48714036 0.66636086 -0.77577573 -0.017699273 -0.28395727 0.16857743 0.12615855 0.7140717 -0.40751997 0.4909954 0.22177014 0.5858666
下 -0.58599716 0.025562115 0.56432223 0.13964437 -0.5600492 0.07865796 -0.37985817 -0.06238861 -0.20065294 -0.1371033 -1.1054541 -0.02831861 -0.1348926 0.34640843 0.4967582 -0.0060365126 -0.17118996 0.52390635 -0.54821503 0.41768688 -0.026737012 0.077995375 -0.35012722 0.04782088 0.1392438 0.12118158 0.2145392 0.6567393 -0.10432879 -0.04605829 -0.020813502 0.34345195
样 0.5358695 -0.3782161 0.38833708 0.420557 -0.08289968 -0.08358888 -0.112098135 -0.18237896 0.17555083 -0.20311871 -0.27610573 0.19850868 0.06161486 -0.03166403 -0.1863726 -0.42204463 -0.13627687 0.6622854 0.19871691 0.5662963 0.12045491 -0.4363473 -0.08593884 0.5827686 -0.7950868 -0.1704499 -0.014281936 0.98791516 0.08758647 0.01647301 0.29082304 0.43756756
申 0.31279197 -0.1339252 -0.01812486 0.16797513 -0.90039015 0.5645262 1.3327022 -0.09074442 -0.44484532 -0.24845508 -0.1761534 -0.360823 0.25698334 0.47007594 0.15633507 -0.1876631 -0.5390498 0.21214515 0.22405626 -0.107912645 -0.69825006 -0.5613556 -0.006027821 -0.25234568 -0.031428203 0.4047354 -0.1080836 0.770348 0.22908041 -0.35098866 0.7206727 0.17496932
办 0.36093307 -0.38323158 0.020971376 0.3056663 -0.0763267 0.26927075 0.47660765 -0.7078811 -0.07937828 -0.62249285 0.4920783 -0.064146735 -0.71750474 0.5283466 -0.7098414 -0.05206251 0.30764666 0.18037589 0.048771188 0.3839078 -0.26362595 -0.040744405 -0.31494734 0.90555155 -0.44742694 0.01686087 -0.41945964 0.6478649 -0.34909534 -0.3596386 0.6502347 0.18379861
想 -0.42434427 -0.42363313 0.091216154 0.60031223 -0.37372175 -0.4512439 0.024653567 -0.082369246 0.14104542 -0.18407464 -0.8192607 -0.51167995 -0.031893745 -0.04163294 0.27491245 -0.26087773 -0.06816378 -0.13110486 -0.7315873 0.4467989 0.10153245 -0.08083797 0.24692415 0.13521788 -0.7869173 0.51711196 -0.23468976 0.744037 0.033358198 0.2902099 0.0775802 -0.010635334
最 -1.0699131 -0.17039861 -0.4010968 -0.43149978 0.29523602 -0.05430693 0.68949586 0.1385212 -0.9250292 0.38392082 -0.25828066 0.7124544 -0.021096801 0.2489378 -0.042182997 -0.43591642 -0.5096255 1.1095818 -0.33675855 0.8665046 -0.72807485 0.4224991 0.03426443 0.23063082 0.21185504 0.44112387 0.23247845 0.30072287 0.9848946 0.14719293 0.028402133 0.050392132
清 -0.079758674 0.50609744 -0.57181287 -0.15135418 -0.7937205 0.21298756 -0.13964877 -0.1616987 0.04142645 -0.8114147 0.24524058 -0.26517385 0.02288464 0.31804335 0.2539494 0.09910603 -0.822108 0.3564197 -0.53837895 0.7423451 -0.5931812 0.16849393 0.10053927 0.26424277 0.037936572 -0.23840451 -0.29675967 1.2835728 -0.38099703 0.23747784 -0.70111305 -0.025135055
就 -0.23252533 -0.24282362 0.07784119 0.50727814 0.16298163 0.12452645 0.0067753782 -0.31160122 -0.18751012 -0.048781686 -0.071593 -0.19332641 0.0016498179 0.5220301 0.11689822 -0.05288962 0.17274103 -0.047983713 -0.5172923 0.24501432 -0.16801888 0.12860568 0.33008513 -0.10193088 0.22198725 -0.01656038 -0.10034602 0.53342396 0.120726764 0.11045253 0.17229086 0.46558428
闭 0.049559433 0.7101701 -0.5846892 1.1077355 -0.21485826 0.40382934 0.53015256 -0.43986112 -0.31464976 -0.28624308 0.3109219 0.07715309 1.0972633 0.109870285 1.0567901 -0.26316097 -0.22983745 0.5801396 -0.48194286 0.16457035 0.108349696 0.4246257 0.71122664 0.17138179 -0.4315982 0.4054124 -0.2481895 0.7058252 -0.37106055 0.4948963 0.4247348 0.943993
和 0.013345058 -0.1006235 0.7516485 0.81254685 0.21817507 -0.010622704 0.15804264 -0.29983094 -0.052802503 -0.5393285 0.17098784 0.46256852 0.18841419 -0.24884826 -0.2735757 -0.50878847 -0.22837202 0.667844 -0.014384131 -0.6463139 0.0012438654 0.0016145392 -0.47631934 -0.20867464 0.035347182 0.45576873 -0.0070763896 0.62810975 0.14625885 -0.15634467 -0.36476862 0.65846574
经 -0.1977058 -0.054313466 -0.49669543 0.3404705 -0.4065084 0.064951025 0.15658587 -0.7751054 -0.04500719 -0.41824377 -0.038792368 0.21786468 0.1676159 0.54928935 -0.09423986 0.7333003 -0.58266354 -0.29531038 -0.9933482 0.045662913 -0.20672832 0.18687758 -0.21422184 0.25427195 -0.36267826 0.8601726 -0.63122445 0.6107192 0.46239728 0.22405009 -0.30738106 0.048714325
才 0.46029297 -0.60687274 0.23009619 -0.2974994 -0.5567995 -0.02491679 0.7394793 -0.43313113 -0.027660972 -0.021511413 -0.35276756 0.4877225 0.38388184 0.4873591 -0.07477183 -0.6390386 0.239187 0.3836199 -0.092934996 0.6081953 -0.1612811 -0.35074067 0.35860732 0.008395801 -0.18995807 0.22501099 -0.39103585 0.6126054 0.011586999 0.27825713 -0.15005213 0.19020255
日 -0.96879214 0.3613763 -0.58104676 -0.3201514 -0.0956548 -0.83287966 0.27867073 0.18305825 0.010962851 0.1332146 -0.12903398 0.36888105 0.13529886 0.46694335 0.12762819 0.31729382 0.1670879 0.6105462 -0.11012663 0.91188097 -0.9653931 -0.1375109 -0.79120463 0.1414035 0.0628512 -0.09665873 0.5581137 0.7302154 0.8490558 -0.6661405 0.20247799 0.4795068
换 -0.37022397 -0.016477635 -0.30687734 0.50166494 0.4544148 -1.1225889 1.0095822 -0.5973191 0.002055081 -0.5187362 0.18218194 0.10235331 -0.025828987 -0.5009967 -0.664954 -0.07908602 -0.2352431 0.47296286 0.11097362 -0.42700374 0.07669353 0.095803946 -0.15313464 0.37781933 -0.0007586118 0.3018046 -0.096718915 1.0869993 -0.49335998 0.6734777 0.46572363 0.5996461
哪 -0.16866657 0.4010148 0.5137527 0.24445009 0.2039659 -0.83375263 0.11872555 -0.2282458 0.32977965 -0.0022779005 -0.5210268 -0.1627049 -0.17671138 0.36054462 -0.13651545 -1.0886173 -0.23694414 -1.0826142 -0.16183822 0.38083398 -0.41444787 -0.21079114 -0.69627327 0.30749527 0.034172174 0.48018616 -0.046532005 0.5410262 0.34127188 0.9091721 0.8830035 -0.10291374
过 0.12892856 -0.43663707 -0.22814849 0.4827101 -0.3625745 0.30994943 0.5482924 -0.12033776 -0.3710086 -0.2091282 -0.1952182 -0.22490388 0.013672101 1.1767447 0.0021896474 0.115412 0.0625356 -0.26388758 -0.13884845 -0.18724093 -0.10556502 0.021515818 -0.28704107 0.23982395 -0.007439203 -0.39316162 -0.29997492 0.70950496 0.025394665 -0.563287 -0.12123763 0.50717366
定 -0.27445057 -0.16483328 -0.47447893 0.7692746 -0.66799814 -0.5567502 0.017978704 -0.2950463 0.5148608 -0.0583289 0.017397359 0.20280106 -0.26684895 0.3251231 -1.1378455 0.4800087 0.23598541 0.71580344 -0.18953961 -0.3956279 -0.6129389 0.5893185 -0.54166263 -0.5488909 0.0021133577 0.42415315 0.2705674 0.7064257 -0.40933284 0.2798058 -0.21546906 0.5212266
都 0.0399136 -0.22418104 0.2349894 0.17129764 0.06600793 -0.11482392 -0.29457527 -0.15036656 -0.210171 -0.2064049 -0.045884617 0.09421291 -0.06355035 0.60694945 -0.145519 -0.3243673 0.09766155 0.1308796 -0.53695464 0.07239517 -0.36395654 0.4078078 0.14811227 -0.18055117 0.39887294 0.17498419 0.087649584 0.50428694 0.10499568 0.09610253 -0.083992474 0.16323087
贷 -0.88846046 -0.7161958 -0.04065536 0.38687465 0.74843097 0.031219264 -0.30464888 0.334286 0.14349853 0.31020266 0.08094734 0.6026819 0.80883574 0.40292186 -0.038058016 0.09006675 -1.1224661 0.0069712126 0.55170685 -0.11791981 -0.39429495 -0.27350304 0.5553416 -0.0900122 -0.37402108 -0.38811487 -0.4088437 1.6419024 -0.15940809 0.25954837 -0.031937048 0.7345053
金 -0.28937444 0.19350769 0.1964144 -0.6352711 0.32307968 0.42242637 0.20410675 0.0071598804 -0.15765725 -0.11077864 0.10877166 0.7501502 0.17885372 0.1290373 -0.72491205 -0.084711 -0.78745586 -0.121716656 -0.97467023 -0.11461595 -0.75321424 -0.37129343 -0.27013183 0.33416238 -0.6699012 -0.833965 0.34735718 0.4563679 -0.22062667 0.4338979 -0.022238396 -0.1559702
面 -0.18124017 -0.3065919 -0.4696972 0.16463836 0.18045598 0.40018675 -0.520173 -0.3317459 -0.048165914 -0.54954964 -0.0419886 0.015402281 -0.16217023 0.40655988 -0.3754362 -0.7105727 -0.30524746 -0.4720221 -0.4170978 -0.040421147 -0.6169271 0.15571178 -0.15844336 0.6075165 0.15908228 0.20342301 0.48937878 0.31273508 0.1942984 0.6266468 0.5282121 -0.24834678
回 0.22459437 -0.31906798 0.66475785 -0.013703027 0.25953627 0.39479294 0.2437363 -0.40636402 0.39727294 -0.08851075 0.36650616 0.019374114 0.34147683 0.51032484 0.19033493 0.56162214 -0.18697023 0.03703499 -0.5405867 0.6053822 -0.5737697 -0.19029701 -0.60590506 0.60109794 -0.12966879 -0.3312767 -0.2815961 0.52891946 -0.43050632 0.44082403 0.74244267 0.47288826
网 -0.37326765 -1.0556492 -0.07256378 0.6054017 0.771831 -0.5472259 -0.530813 0.38165745 0.14662929 0.45119044 -0.07150267 0.2568539 1.234665 -0.058775324 -0.54837406 0.07651264 -1.3590944 -0.30258635 0.07150029 -0.054361485 -0.89042914 -0.13244697 1.1068871 -0.28545782 -0.7714088 -0.029454233 -0.33079696 1.5859144 0.017946353 0.06592353 0.511608 0.5743534
利 -0.5716058 0.32586688 0.05126451 -0.17979124 0.46994337 -0.51039934 0.16704054 0.62100476 0.603511 -0.11230831 0.08279405 0.08611722 -0.3006729 0.8682889 0.1631623 -1.0448343 -0.57406485 0.8440173 -0.35495204 0.7552287 -0.08557572 0.030167948 0.11333871 0.60734165 0.27627793 -0.3467007 0.16450581 0.7321806 0.3653254 -0.15391013 0.037515834 0.95285785
淘 -0.38467374 -0.960039 -0.3203317 0.18015583 -0.4387222 -0.6045886 -0.7165297 -0.63137186 -0.3409632 -0.49669245 -0.38101587 0.55828303 0.49870753 -0.039159108 -0.5076322 -0.22885948 -0.2931031 -0.5358986 -0.2298287 0.50607926 -0.36204168 0.017678604 0.09917344 0.16738996 0.3279311 0.79404974 -0.21790703 -0.020724248 -0.42730224 0.43596193 0.5260532 0.85588217
但 -0.27578932 -0.11904449 0.18712585 0.35920638 -0.08583684 0.21861923 -0.08510057 -0.9557495 -0.06454389 -0.2424626 0.15191585 -0.11270352 -0.08485663 0.56228 -0.35221043 0.3860152 -0.3122296 -0.45760253 -0.8039012 0.07175518 -0.027194448 0.06301634 -0.2226414 0.08912828 0.0065715555 0.39188915 -0.038958464 0.40651152 0.31320977 0.22048928 0.17324078 0.15658331
低 -1.266215 0.28532648 -0.056763027 -0.67522866 0.44767952 0.91540796 0.23891929 -0.19281028 0.088575386 0.6449717 -0.24802867 0.28924668 0.21145603 0.21937895 0.28064325 0.058487497 -0.45483714 1.7978278 -0.78664094 0.7815365 -0.5343432 0.07687886 -0.014029613 0.5891512 -0.19896726 0.16326818 -0.07793448 0.7912762 0.3176793 -0.42577487 -0.16555017 0.67081225
绑 -0.63873255 -0.35396495 -1.0747274 1.095603 -0.96341705 -0.6053276 -0.19566643 -0.4440588 0.887236 -0.16466224 0.16394235 0.21571784 0.25892445 0.38835225 -1.0697304 0.6101393 0.33917275 0.7869781 -0.1683399 -0.39838743 -0.54666424 0.5872907 -0.22522208 -0.19054991 0.048776895 0.7808251 0.26272094 0.9226085 -0.7129012 0.21318708 0.1397576 0.32733542
影 -1.1909996 -0.5571497 -0.2173509 0.8453143 -0.3175353 0.6985915 -0.22973172 0.56667775 -1.0572103 -0.102227464 0.89236975 -0.19849919 -0.22610715 -0.64918447 -0.3650996 -0.32543153 -0.1678554 0.4602293 -0.38647756 -0.5105711 -0.13730569 -0.05974774 -0.8071818 1.1137086 0.4151767 -0.129205 -0.5405687 1.224101 0.93886757 -0.5085221 -0.7204513 0.67858636
家 -0.046127886 -1.0834115 0.32466316 0.2589543 -0.2806258 0.20880248 -0.29974732 0.02933186 0.14133717 0.110087395 0.4461856 0.5412649 0.30821323 0.07613956 -0.0685584 -0.36978018 -0.9823131 -0.0052576764 -0.7474115 0.38131818 0.31458184 -0.5625148 0.2025842 -0.8653824 -0.3089106 0.6383153 0.1783386 0.50417227 -0.28124228 -0.24507448 0.74807584 0.47854838
只 -0.3732477 -0.10916391 0.63528377 0.13249438 0.2944955 -0.52937037 0.10428125 -0.42088822 -0.32774356 -0.88622123 -0.22611305 -0.15023 0.8172395 0.27043122 -0.57094395 -0.28700003 -0.10434015 0.42955086 -0.296873 0.21952729 -0.10483592 0.40155086 0.06552017 -0.17093807 0.31922302 0.5642464 0.34482655 0.5343812 0.053191423 -0.68188083 -0.4019473 0.46048272
响 -1.5297972 -0.57581055 -0.10790156 1.2282659 -0.403706 0.7373018 -0.27222893 0.8622801 -1.0978222 0.08547564 1.0028477 -0.1760037 -0.33072832 -0.82286537 -0.4311764 -0.5180331 -0.20418952 0.47815943 -0.4378901 -0.373298 -0.23504888 -0.0776062 -0.8988596 1.315578 0.377397 -0.0070993733 -0.70654315 1.2035277 0.95610684 -0.66845775 -0.8994394 0.5847928
取 1.0242631 0.47883075 -0.08248257 -0.026271623 -0.69122773 -0.19507995 0.7523555 0.07001015 -0.19607621 0.39256948 0.21083802 -0.21927735 0.09876095 -0.5948602 -0.17640212 -0.6707786 -0.4808163 0.3191164 -0.585437 0.07330025 -0.0121344635 0.8453534 -0.43744478 0.15201434 -0.7289926 0.4272902 0.00206607 1.0813601 -0.12741406 0.35234013 0.6521525 0.24052285
临 -1.0245117 -0.6259188 0.23402484 -0.9853559 -1.2766029 0.10024932 0.6066062 -0.21056113 -0.43872488 1.0287861 -0.38845587 -1.0096363 0.8480681 0.17232 -0.54993224 -0.3825311 -0.30026686 0.33084136 0.06483111 0.74840313 -0.6450738 0.44046286 -0.6757508 0.41948444 -0.17043686 0.2281018 0.93070936 0.64342993 -0.6799128 -0.13810109 -0.39886168 0.5343567
证 -0.036121603 -0.28754705 -0.3900945 0.9473943 -0.63287604 -0.95747805 0.51934135 -0.65819657 -0.36049473 0.5279967 0.7358713 0.42144918 -0.29110992 1.3490729 -0.0437738 0.08805004 -0.33434466 0.0055248886 0.23225948 -0.46965334 0.36610225 0.91235155 -0.38110468 -0.010005321 -0.26337326 -0.34492242 0.19679227 1.899137 -0.6651267 -0.5343511 -0.24921983 -0.40903774
续 0.15258437 -0.36123285 -0.5090869 -0.14674266 -0.66319513 -0.6512327 -0.12683839 0.35467067 0.1985481 -0.29499066 0.8890055 0.13598101 0.10794315 0.16929209 -0.5517557 -0.6434118 -0.8588833 0.70375365 -1.1269932 1.488186 0.7730413 -0.32758194 -0.36790648 -0.16198593 0.22059673 -0.16181676 0.16194993 0.4079365 0.16252743 0.50680196 -0.069099575 0.7807995
完 -0.09393079 0.38686445 -0.4652486 -0.10945878 -0.0591368 0.5011638 0.4104533 -0.4649549 -0.19191521 -0.16873507 -0.086041585 -0.56719536 0.057229478 0.49525192 -0.21259522 -0.023649398 -0.3975542 0.18538164 -0.8219629 0.427815 -0.48645264 0.08906298 0.17879891 0.1553827 0.032490667 0.17621401 -0.21388102 1.0456034 -0.16909152 -0.05699147 -0.53129065 -0.26992977
看 -0.041178 -0.41365677 0.33810192 -0.18499951 -0.496569 0.11115682 0.075420775 -0.3283762 0.13911109 -0.26611114 -0.26751077 0.07176408 -0.43574294 -0.18282923 0.8590381 -0.7139821 -0.65550065 -0.05124806 -0.06928536 0.2465108 -0.955076 0.48611504 -0.42170042 0.6471774 -0.07561974 0.34124634 0.5762384 0.7290076 -0.26523697 0.2206395 0.35484377 -0.10939437
之 -0.65877134 -0.13661931 -0.43134552 0.18923052 -0.15450685 -0.4222262 0.37751782 -0.0660775 -0.9213265 -0.20714204 0.16588841 -0.3831321 -0.35887152 0.29889202 0.033754013 0.08393876 -0.025512204 -0.09362906 -0.72997934 0.31885552 -0.019182688 -0.2895878 0.10976541 0.04673222 -0.10616345 -0.025667094 -0.19607235 0.666755 0.15238972 0.51421124 0.041053142 0.18137795
户 -0.2798151 -0.35161352 0.024629965 0.73883265 -0.43975335 0.04683259 -0.57701886 -0.6121529 -0.3516829 -0.42140022 -0.058121007 1.0780296 0.3970715 0.39784437 0.6630843 0.08405034 -0.112173535 0.16892932 -0.36365718 -0.28674722 -0.12571968 -0.7069931 0.054382794 0.043360297 -0.53894967 -0.059915192 0.5228345 0.32525906 -0.7091631 0.33781552 0.45082632 0.5292396
几 -0.73875755 0.56325495 0.24169508 -0.11052467 -0.59408015 -0.38555983 0.16139007 0.019230217 -0.7758414 -0.4071415 -0.39059892 0.28578267 -0.041458663 0.5507123 -0.112025365 -0.19390112 0.57999825 0.47871447 -0.14013036 0.5553199 -0.24761935 0.19811471 -0.26732442 0.12281007 0.75981027 -0.021552676 -0.00358018 0.8028862 0.89159787 -0.06832407 0.32764974 0.0391236
改 -0.43833283 0.44432282 -0.2702581 0.40237153 0.39529946 -0.6222415 1.4769256 -0.4634693 -0.1875682 -0.11524619 0.08503379 0.17789514 -0.2141408 -0.6176622 -0.7718622 0.67369246 0.12334493 1.3446705 0.10910421 0.09800389 -0.6573833 -0.11767353 -0.8371088 -0.41844916 -0.106547214 0.010264729 0.07413505 1.1695446 -0.650236 -0.29574874 0.53540164 0.433524
成 -0.16171557 -0.18109217 -0.11836686 0.3424165 0.7676507 0.2670308 0.53275865 0.26624918 -0.15209374 -0.67231613 0.30393574 -0.55945814 0.6869136 0.5624088 -0.5373462 0.7247739 -0.7625797 0.03889563 -0.48509198 -0.24847741 -0.051696207 -0.22440891 -0.77474624 -0.062409244 -0.50068605 0.31717885 -0.31766877 0.7204297 -0.22980478 0.02927188 0.21905966 0.49903935
查 0.12790477 -0.22649868 0.3076783 -0.15501548 -0.81365937 0.000110449684 0.012051013 -0.4286989 0.4689163 -0.57406473 -0.5627725 0.2025469 -0.5449469 -0.3947222 0.81656474 -0.852076 -0.698151 0.26617047 0.004463635 0.30152303 -1.0842909 0.44536215 -0.59559387 0.6983321 -0.29893738 0.28826648 0.5005302 0.7562719 -0.2907286 0.06197801 0.2231871 -0.03364168
结 -0.5830962 0.26189667 -0.1563001 -0.33654767 -1.3590071 0.08717755 -0.34208784 -0.30230677 -0.09780375 -0.38175628 0.2886885 0.2791072 -0.09057828 0.35271418 0.108693875 0.08546544 -0.0009846895 0.40594724 -0.04855877 0.85346615 -0.6738179 0.001549857 0.23458503 0.33418307 -0.64217716 -0.23486432 -0.8403765 1.0384609 -0.8940269 0.54334515 -0.49371147 0.27878782
来 -0.293776 -0.27960074 0.43854818 0.38229024 0.1971431 -0.32202268 0.3273567 -0.15547492 -0.36301538 0.46717 0.08825094 0.06632174 -0.0017139221 0.3809734 0.021179315 0.21866313 0.0036718117 -0.15521753 -0.6876494 0.1003076 -0.54531986 -0.114374004 -0.08310846 0.56358695 0.07916952 -0.65524095 -0.25469816 0.66269493 -0.16442282 0.49507156 0.3789012 -0.16774726
给 -0.061990935 -0.25634015 0.43245652 0.15688011 -0.15986909 0.24263224 0.15470824 0.25945568 -0.10290388 0.048338003 0.009117474 -0.103795744 0.20044026 -0.019555034 0.41358256 -0.11200264 0.3982653 -0.0028820157 -0.77853495 -0.18753226 -0.3554014 0.06795498 0.09149257 -0.029194817 -0.36971247 0.35081625 -0.27812186 0.6951272 -0.08184639 0.4962154 0.32547754 0.13761349
人 -0.16260207 -0.093652435 0.40211296 0.33736974 -0.18903382 0.116333224 -0.119250916 0.32371458 -0.055690534 0.34293783 -0.15211348 0.25560364 -0.086937234 0.5152626 -0.006527308 -0.36157858 0.16431256 0.62472135 -0.50820297 -0.7830548 0.22374174 0.32026324 0.25408435 -0.26741546 0.01970349 0.0012639458 0.28991586 1.1607136 -0.032515366 -0.19852519 1.1930745 -0.15759464
复 0.32398218 -0.23957142 -0.22916421 -0.047841992 -0.2488262 0.6801869 0.6016891 -0.42415634 -0.3449957 0.647793 0.4325315 0.0029501496 0.7444724 -0.07540379 -0.17681056 -0.44411114 0.083483316 0.4905007 -0.41154066 1.1740798 -1.0177861 0.48834443 -0.26596913 0.39852998 -0.5130766 0.040832598 -0.6915656 0.8249122 -0.34093076 0.32326937 -1.146998 0.39445376
限 -0.48794088 -0.58834356 0.41141886 0.6174584 0.07226127 0.44176012 0.25912067 0.8505898 -0.5641348 -0.30265763 0.12083412 0.5084811 -0.21688318 -0.011418687 -1.1634495 -0.5551462 -0.08626469 0.5934785 0.031761747 0.5592255 -0.14345053 0.69756335 -1.0897216 0.07057981 -0.2601575 0.43291223 0.3196507 0.10331326 0.35572204 -0.15483342 -0.43602198 0.22448099
持 -0.461676 -0.5302259 0.09143734 1.0334847 0.527056 0.060538873 -0.12768665 0.029905906 -0.08238907 -0.604598 0.7577084 0.40856043 0.15328361 -0.27991718 -0.28640875 -0.8818483 -0.3595708 0.5584906 -0.9506259 0.23894492 -0.53456545 0.068987265 -0.9564999 -1.3173113 -0.12645955 0.59790254 -0.09900384 -0.42096028 -0.5514404 -0.63581467 0.43237844 -0.21442065
把 -0.24528699 0.21594773 0.12272396 0.41364327 0.16289638 -0.111707255 0.26907063 -0.28336483 0.08551451 -0.3508611 -0.6828705 -0.07432992 0.21142979 -0.30859986 0.2531127 0.3009558 -0.0036309538 0.15943496 -0.43106183 0.15933117 -0.40227994 -0.10976245 0.27320385 0.25202787 -0.5894405 0.5012295 -0.19980286 1.1538202 -0.3463622 0.6422573 0.34946555 0.16352993
录 -0.26107 -0.59295994 -1.1735014 0.7309524 -0.6848577 0.13186719 -0.2668712 -0.9296506 0.21117616 -0.6807223 -0.15259784 0.25328895 0.061379466 0.3986089 0.086789675 -0.69107985 -0.08362138 0.5500331 -0.027257385 -0.021836279 0.11328667 0.99607116 -0.8680797 0.7966963 -0.38933542 -0.4450583 0.033604093 0.2990696 0.4778568 0.6061717 0.32419872 -0.306229
每 -0.74799216 0.5151688 0.23078176 0.13704327 -0.18848105 -0.43600503 0.24368489 0.57238305 -0.20722461 -0.33467802 -0.5274761 0.24707976 0.048485603 0.59999424 -0.216424 -0.35762933 0.17634256 1.0193309 -0.54387367 0.6072538 -0.19707464 0.737813 -0.53136295 -0.120827034 0.48698205 0.44012013 0.45343187 0.3815776 0.55759364 -0.11739704 -0.16949625 0.20028225
久 -0.2396511 -0.18258901 0.45419124 0.4168468 -0.73203474 0.15952113 0.8829242 -0.6606783 -0.057763413 0.3102612 0.025926769 0.94118583 0.8540828 0.6270945 0.008001141 -0.11517557 0.17892948 0.3298812 -0.06739415 0.9790312 -0.058173716 0.00036515426 0.4202393 0.45141464 -0.09010719 -0.55073935 -0.25131565 0.89058286 0.9236612 0.81393933 -0.619192 -0.10656337
出 0.15419123 -0.26342082 0.11838799 0.01934813 -0.08841888 0.07638433 0.3137416 -0.06512163 -0.03434654 -0.28195307 -0.07599111 0.0719346 -0.014007565 0.6358891 0.36108166 0.2855241 -0.22227024 0.053960934 -0.28314358 -0.13253668 -0.9272475 0.13984585 -0.69561917 3.047015e-05 0.24812709 -0.67462337 0.04397743 0.48830062 -0.61142164 0.63332546 0.2986249 0.17944159
交 -0.40464783 -0.124272905 -0.40428033 -0.22752653 0.045757134 0.5349815 0.23609251 -0.08909854 0.22634423 -1.1626203 0.8049044 0.65091676 0.7091419 0.31302205 0.43011123 -0.46642262 0.1709901 -0.24849099 -0.5867698 0.47064713 0.22981614 0.2449608 -0.8112134 -0.83391434 -0.41377205 -0.18035892 -0.2393772 0.5204404 -0.38095525 0.2658053 0.21395186 -0.26201746
东 -0.3897418 -1.2413296 0.058815163 -0.29229242 -0.4646892 -0.41817385 -0.19697416 -0.45372593 -0.040078197 -0.073935635 -0.5422003 0.050568707 -0.1387945 -0.26070142 -0.3977328 -0.24475501 -0.51302385 -0.43516734 -0.9358389 0.8007516 -0.8257082 0.1189346 0.13879618 0.011970356 0.8643609 0.83938557 -0.3997295 0.44740582 -0.21021119 -0.40674013 0.32465586 0.7037054
算 -0.4555463 0.50242376 0.07042545 -0.2852192 -0.1350272 -0.22977048 0.21209677 -0.15004729 0.09775104 -0.59632325 0.37720144 0.2878811 -1.2303771 0.4459125 0.30115855 -0.47714773 -0.16324465 0.99988455 -0.3273447 1.1313841 -0.7123908 -0.26035953 -0.20347121 0.6752759 0.0952542 -0.5973454 -0.24609497 0.4883983 0.1696817 -0.60147333 0.38838583 0.90670544
去 0.01031635 -0.41697374 0.12445931 0.49952236 0.30294394 0.2989173 0.32525888 -0.25266272 0.2837597 -0.082336076 -0.2314812 -0.34182987 -0.33311075 0.35663807 -0.06836403 -0.19916214 0.08188997 -0.895417 -0.51616126 0.57915914 -0.83923537 -0.046779487 -0.17490162 0.08057205 0.0039213067 -0.17199916 0.2638584 0.69117427 -0.27953297 0.35726047 0.7641102 -0.260536
需 0.051290102 0.31647113 0.38460842 0.67589444 -0.74345845 -0.30049783 0.75065583 0.06669321 0.48321384 -0.25075087 -0.063555025 0.10641768 -0.31339824 0.7689535 -0.44370353 -0.4863376 -0.5368555 0.48388395 -0.7658084 0.49305955 -0.0012995969 -0.29387644 0.048051056 -0.5189459 -0.34119287 0.10445697 0.0065829298 0.16467755 0.21507967 0.50392455 -0.33790296 -0.15526618
升 -0.53754264 -0.5551832 0.4752775 -0.020494923 -0.6851185 0.5962352 0.5208417 0.10824634 0.35070163 0.04636053 0.21784964 -1.2685428 0.57472974 0.16186345 0.10642973 -0.38397846 -0.76483613 1.2627724 0.47948414 0.11054193 -1.0773011 -0.47066745 0.36509863 0.0057803956 -0.027248185 0.054743163 0.36910334 1.0224437 -0.47092295 0.4329461 -0.17926468 0.6520584
恢 -0.004790099 -0.2518698 -0.39386258 -0.34851268 -0.38460714 0.7463957 0.56159073 -0.5024012 -0.44936785 0.57426953 0.24907942 -0.061173752 0.98002285 0.17932317 0.20875388 -0.51235044 -0.043714706 0.74722564 -0.24645104 1.0263108 -1.3180192 0.35048395 0.09221327 0.7326943 -0.55119115 0.0004644697 -0.631269 1.0163592 -0.68031394 0.15452461 -1.3403833 0.38021395
西 -0.24564123 -1.0998328 0.00094387605 -0.38361323 -0.38554597 -0.35167834 -0.19304575 -0.44341412 -0.0069906954 0.10139782 -0.393998 0.10726892 -0.29309765 -0.103602365 -0.34889954 -0.124400474 -0.52240473 -0.38731256 -1.0450054 0.85045815 -0.8274491 -0.05316757 0.074402474 -0.017159242 0.78939533 0.7322109 -0.29092982 0.4742053 -0.32154435 -0.40839726 0.3581766 0.625175
那 -0.29236162 -0.05980002 0.4111299 0.058364656 0.21702513 -0.22579339 0.25752446 -0.0757727 0.09781111 -0.09320421 -0.15575461 0.17527695 -0.38992622 0.4799745 0.034730762 -0.35563356 -0.1648484 -0.20334347 -0.68440765 0.43337744 -0.5505714 0.31300095 -0.0067736646 0.20567158 0.13944976 0.32218537 -0.057000317 0.21710435 0.081678085 0.60439074 0.21779124 0.024063671
再 0.24342732 0.22132592 -0.4177303 0.59401745 -0.44130307 0.019829065 0.4229676 -0.05535907 -0.9271463 0.13222232 -0.34628007 -0.18008557 0.53068364 0.37449288 0.2063848 -0.18780561 -0.14548536 0.19136885 -0.4340973 0.99852866 -0.20018671 -0.21717109 0.22986802 0.012145472 0.29093385 -0.11730519 -0.6106276 0.9162116 0.11013446 0.109662555 -0.13010849 0.05326284
话 -0.42909 -0.4054326 -0.059270002 -0.32502443 -0.18924107 -0.18578911 0.10420994 0.30129245 0.5252794 -0.7629114 0.71277016 0.11856085 0.49377808 0.02126176 0.23551206 -0.28759253 0.8927834 0.17637093 -1.0297762 0.42858827 -0.011751239 -0.0813933 -0.41329032 -0.0884287 -0.1302416 -0.052720092 0.20050946 0.37921607 0.12776248 0.29773614 0.7631858 0.3187632
冻 -0.8780069 0.19942684 -0.002481423 0.061135367 -1.6424874 0.48957568 -0.12123495 -1.2201456 0.16455194 -0.021211307 0.48163372 0.72817045 0.19596569 -0.34600976 0.008935155 0.045635935 0.23448496 0.7606581 0.049125057 1.1733747 -1.1755656 0.6519782 0.35095826 0.5518825 -0.69359726 -0.031001054 -1.0992378 0.7222293 -0.84925556 0.2794831 -0.50497246 0.58128947
点 -0.56472725 -0.3102812 -0.45505717 0.01868477 -0.0025233692 0.26689968 0.16717575 -0.00013333187 -0.7540165 -0.029420746 -0.28220057 -0.3314196 -0.44017848 0.5472813 -0.03785408 -0.10398481 0.5408179 -0.29650322 -0.2652438 0.42699847 -0.6844806 0.25959513 0.034223784 -0.53095 -0.22100495 -0.23835754 0.43628517 0.3978768 0.35169676 -0.06833729 0.63968337 0.3678935
功 0.4008477 0.107076 -0.1286162 0.3830944 0.39496946 0.5486357 0.15885295 -0.50848556 -0.22555064 -0.19525343 0.7282066 -0.052931212 1.1298883 0.5597914 -0.36061838 0.5329392 -0.6736024 -0.105522595 -0.65285736 0.113623574 -0.037340436 -0.07683947 -0.44175476 -0.05864385 -0.4541179 0.53452027 0.05275322 0.7788639 -0.090305224 0.08538481 0.3736637 0.028601136
电 -0.035009533 -0.58502203 -0.56379396 -0.24476893 -0.46972123 -0.3329395 -0.41428697 0.26684612 0.5615846 -1.3116866 0.75463676 0.2676976 1.0343615 -0.13324258 0.25765368 -0.4128233 0.65687865 0.21509826 -0.7810084 0.17765129 -0.019296598 0.085055865 -0.592796 -0.40805262 0.086867 -0.18027899 -0.2790357 0.7064252 -0.24232158 -0.0704632 0.9979383 0.0681318
记 -0.25025347 -0.28009856 -1.0637627 0.493024 -0.15053947 0.09833298 -0.010175025 -0.8639972 0.29435807 -0.8063675 0.18183641 0.49393663 -0.23830707 0.18751152 0.52641505 -0.572651 -0.026857004 0.3503872 -0.02999731 0.24251771 -0.10666558 0.51435125 -1.1737288 1.2196026 -0.14211027 -0.07052397 -0.24622364 0.7290988 0.6466408 0.25131038 0.19104166 -0.3436125
也 0.03981994 -0.27863476 0.18859944 0.42492297 0.23399928 0.1920072 -0.2179979 -0.35170582 0.08197388 0.022254964 0.09557657 -0.03363757 -0.17911938 0.47430432 -0.33248854 -0.11730575 0.1864279 -0.14373462 -0.709616 0.024746416 -0.075026155 0.18772976 -0.06334516 0.16286322 0.19599767 0.24358754 -0.1588266 0.56130743 0.058783483 0.30968717 -0.037056513 0.40538514
充 -0.8540331 -0.014208612 -0.11211784 -0.503843 -0.13670221 0.6794947 0.40526876 -0.365848 0.5824537 -0.8796263 0.83917755 -0.09279636 0.288758 -0.19361137 -0.38469285 -1.0605782 1.4461155 0.14997414 -0.67940813 0.28687984 -0.43335027 -0.055062793 -0.21392423 -0.66106427 0.10070629 0.2842277 0.3348117 0.16453551 -0.75226873 0.2278506 1.0141925 0.49935636
另 -1.301939 -0.3236098 -0.5961579 1.9756043 -1.568494 -0.6419404 -0.582626 -0.8883381 -0.33236074 -0.30861184 -0.10786895 0.38737667 1.8255259 -0.10595238 0.30343708 1.0243478 -0.11914929 0.32081252 -0.708063 0.72402185 0.35255685 0.21575436 0.08123181 0.7797203 -0.5622181 0.54695684 1.3172194 0.978839 -0.7690115 0.16262871 0.36536196 -0.21383043
除 0.92438996 0.7486984 -0.8402097 0.45356664 -0.51060516 0.3103293 -0.30620667 -0.33099827 0.69087386 -0.5196615 -0.22160459 0.85371137 -0.15930209 -0.46163076 -0.55566967 -0.6557917 0.025068758 0.49893978 -0.017534142 0.2974724 -0.7796471 0.81862235 -0.53699386 0.82323056 -0.41738746 -0.038751263 -0.3754643 1.0657719 0.046248946 0.7639193 0.025555534 0.3297068
刚 -0.28348595 -0.6121055 0.17793992 0.23143718 -0.60855925 0.3864633 0.725706 0.06737895 0.23543598 -0.56353617 -0.6448209 -0.07817277 0.3929757 0.2585622 -0.034175888 -0.11143672 0.56618536 -0.7633772 -0.9079884 0.49099016 -0.5561842 0.12481068 0.1744205 -0.1548039 -0.5565448 0.80417603 -0.30002308 0.40495256 0.41121596 -0.16940412 0.13072045 -0.2709328
转 -0.7118537 0.18340681 0.45437074 0.98100287 0.5789177 0.09154397 0.5901598 -0.47413403 -0.023822209 -0.13845043 -0.3242991 0.42555785 0.2163288 -0.50609475 0.22532474 0.2365574 0.19707468 0.24727152 0.16872503 -0.37020946 -1.1145184 -0.2615792 0.1348769 0.3124091 0.15955141 0.74028915 1.0173692 1.2011849 -0.88155884 0.6772025 0.57060266 0.27639514
别 -0.33654293 -0.19335383 0.536588 0.5229373 0.11408107 -0.2681648 -0.43925866 0.1709367 -0.005660556 0.2370832 0.1116748 -0.026310874 0.14769584 0.47970647 -0.2144827 -0.36477584 0.047313903 0.87096196 -0.14397983 -0.5705189 0.25865373 0.37233174 0.049218383 0.07683292 0.03813751 0.26454327 -0.070902616 1.2750242 -0.43746445 -0.0403458 1.1085658 -0.18513432
说 -0.14523932 0.004128935 0.2904466 0.2667402 -0.1475224 0.17190573 -0.26935357 -0.45305642 0.03680766 -0.2964486 0.23707493 -0.15391488 -0.24039906 0.59682137 0.258138 -0.21958025 -0.21406381 -0.0035748824 -0.5914118 -0.3892467 -0.54916286 0.15375787 0.271673 -0.3329459 -0.2479497 0.06429488 -0.091820605 0.3324886 0.23097466 0.04399657 0.28617686 0.27588978
法 -0.28756213 -0.65685177 -0.26032412 0.51024455 0.0333493 0.080023155 -0.7259389 -0.81393963 -0.6331437 0.14352264 0.11588698 -0.46584383 -0.044681855 0.6202537 -0.35052648 -0.5404896 0.17028934 0.02268046 -0.22697209 -0.18143764 -0.06517191 -0.39989784 -0.69857293 0.10133092 -1.0306473 0.42059892 -0.65841496 0.37383094 -0.39824688 -0.60445124 0.051790953 0.11925501
间 -0.44328633 -0.2510876 0.123341344 -0.1792611 -0.6838926 -0.7417012 0.41429397 0.32748023 -0.52169204 0.6827367 0.1795973 0.6865305 0.73249656 0.8506504 -0.08537184 0.044699084 0.33874294 0.28918248 0.23045644 0.8564517 -0.63166136 -0.24105516 -0.73565406 0.29802254 -0.080310814 0.026169775 0.3246788 0.46725097 0.60825205 0.16736214 -0.5619536 0.60641855
两 -0.4472125 0.33954942 0.25134224 0.41921604 -0.3825379 -0.06691348 -0.24319702 0.04523029 -0.69937706 -1.0055534 -0.3055263 0.63881063 0.11791388 0.40816987 -0.46467966 0.15935616 0.27903005 -0.041574575 -0.2020291 0.22325692 0.17480288 0.37811935 -0.07017809 0.4196537 0.97755605 0.38507658 -0.18523927 0.94709504 0.15611926 -0.12795576 0.071958445 0.42495403
份 -0.45632333 0.11058247 -0.0023301858 0.22974555 -0.5379076 -0.23108727 0.39031217 -0.54290086 -0.32924426 -0.13138622 -0.5567231 0.2344727 -0.02070718 0.8955347 -0.27592608 0.18013833 0.2689226 -0.3150977 -0.39851323 -0.5728078 0.36624467 0.6918766 -0.2464363 0.114061825 -0.27357352 -0.06609723 0.46754766 1.6851354 -0.20608492 -0.87361795 -0.7460251 0.31614387
。 -0.11324956 -0.20105286 0.04094786 0.21305074 0.054860808 0.104363434 0.13938087 -0.4641015 -0.18609881 -0.17479359 -0.005478298 -0.0376197 -0.26801968 0.5972934 0.071588114 0.050327845 0.13259485 -0.12460878 -0.6487964 0.14415109 -0.19848578 0.09995343 0.08936348 -0.04110478 -0.13088807 0.08963977 -0.22157314 0.49782073 0.0781775 0.2201793 0.14537399 0.20815621
车 -0.20439133 0.07898528 -0.15097545 -0.12226806 -0.31900197 0.37131295 0.45477197 -0.17339039 0.13511679 -0.8564608 -0.041406665 0.8759643 1.0612726 -0.39457965 -0.72500587 0.27630192 -0.27263 -0.452611 -1.3454837 -0.4964141 -1.4787334 -0.3345291 -0.8208422 -0.013844951 0.7078712 -1.0014491 -1.1975075 0.38901153 -0.8013859 -0.111094475 0.8022356 -0.034315936
全 0.035089396 1.1169853 -0.363313 0.20325834 -0.3873883 -0.023290727 -0.17019267 -0.41820577 -0.153165 -0.19025904 0.06884641 -0.71350515 -0.04751094 0.9172995 -0.45858243 -0.25781208 -0.7124125 -0.12861899 -0.36528662 0.42963672 -0.31885526 -0.25188804 -0.18043907 -0.11659662 -0.4740521 -0.3432042 0.15611242 0.9332113 -0.7186846 0.20281251 -0.3168634 0.112063885
购 -0.2707806 -0.6889958 -0.1394792 -0.46056995 -0.2949265 -0.30543566 -0.114626504 -0.52031344 -0.2395207 -0.39619422 -0.34673145 0.06301975 0.017485652 -0.33738622 -0.76402044 -0.6669828 -0.5703696 -0.3704388 -0.42412603 0.11325073 -0.30240384 -0.41902754 -0.5998329 -0.5615193 0.5802617 -0.008819368 -0.6668527 0.40936336 -0.7160072 -0.17553891 -0.062377896 1.026044
帮 -0.09785339 -0.6737216 0.17651841 0.58737767 -0.94164425 0.6141626 -0.50972927 0.21280153 0.110966764 0.58810604 -1.04616 0.022264328 0.5919582 -0.37067366 0.9861081 -0.21308488 0.15526482 0.5747614 -0.47716776 0.1985885 -0.46895504 0.35230467 -0.16201222 0.13932227 -0.50128895 0.29055566 -0.057945516 1.4103789 0.16340351 0.15278046 0.29793873 -0.46092597
今 -0.8560559 -0.059691947 -0.1462277 -0.2543444 -0.33533618 0.13048425 0.09887188 0.01478944 0.0026216211 -0.57561964 -0.039470058 -0.037609573 -0.06559565 0.3239329 0.44020337 -0.0866171 0.38321254 -0.4367622 -0.22112466 0.5502621 -0.9676788 0.3359959 -0.22931103 -0.10503859 0.28957176 0.66292155 -0.4047215 0.68437237 0.7954082 -0.44750813 0.18017335 0.41536966
被 -0.058586065 -0.15940814 0.07122734 0.24238485 -0.58295697 0.64067864 -0.25997046 -0.30525014 -0.19664583 -0.27612016 0.26495716 0.3951492 0.07889011 -0.13930516 -0.17121516 0.2968842 0.59972924 0.34791964 -0.33787546 0.23195392 -0.15048365 0.32471997 -0.09413187 0.3788184 -1.1883398 -0.04597153 -0.68526274 0.66962 0.05810729 0.3497515 0.07324987 0.85694355
嘛 0.16193692 0.10577943 0.1805373 0.04031716 -0.014552334 0.11162049 -0.15724482 -0.04641867 -0.35610244 0.053180374 -0.39881885 0.022072352 0.14097843 -0.027299577 -0.38659695 -0.3445696 0.36284366 0.36895037 -0.37571934 -0.03976897 0.18569803 -0.3688033 -0.42003307 -0.42981598 0.33089328 -0.24240205 -0.10999412 1.2131857 0.7051581 0.58760995 0.002512731 0.1018029
二 -0.2093528 -0.38100314 0.32081485 0.026717609 0.074222535 -0.27458984 0.60385704 0.17246062 -1.1246295 -0.22165915 -0.23806393 -0.06448555 0.07192458 0.7057729 -0.12939796 -0.4147307 -0.06876264 0.45794687 0.052234717 0.45239946 0.5960437 -0.09048393 -0.52051073 -0.25021574 0.59380865 0.98961264 0.36381197 0.87750363 -0.096295655 -0.77814245 1.0171568 0.3270233
果 -0.34941706 0.19260013 -0.33582857 -0.3241384 -0.41072544 -0.16345717 -0.12422026 -0.6508395 -0.11218481 -0.21382335 -0.42095372 -0.005516861 -0.3037676 -0.1998774 0.03766146 -0.14653696 -0.20331404 -0.1814621 -0.42267296 -0.024638265 0.036797892 -0.4167054 0.025751948 -0.52603894 -0.7835521 0.21751338 -0.059520118 0.89242536 0.55181193 0.11724974 0.0024705925 1.0250306
从 0.27188244 0.20134184 -0.1664239 0.52345055 0.12160714 0.31239504 0.2719893 -0.31385943 0.3861818 0.0820263 -0.45024607 0.23507084 0.036973752 0.06566568 -0.4715716 -0.014898485 0.40929958 -0.15682396 -0.14231355 0.12573266 -1.0755529 0.170324 -0.25601682 0.098378964 0.20454489 0.48129463 0.5632352 0.60942435 0.3059384 0.50245744 0.05051679 0.91830057
直 0.18749034 -0.37988314 0.5140107 0.89363915 -0.12421344 0.51942456 -0.63701475 -0.20204858 -0.18813214 -0.12676698 0.40660667 -0.4175171 0.48184425 0.33609667 -0.32019573 0.16589715 0.27212983 0.011165239 -0.5295352 0.27817088 -0.6250605 -0.13304548 -0.022245323 -0.06301849 0.22928482 -0.2284546 0.6140259 0.75424016 -0.008202356 0.061853003 -0.017603606 0.12743798
意 -0.30536237 0.4874171 0.90066034 0.1600589 -0.2154859 0.02081576 -0.2879143 -0.04029884 -0.327278 0.06297184 0.20822082 0.07833257 0.12504107 1.0973169 -0.3495043 -0.27033144 -0.27690718 0.4789273 -0.8784617 0.03451405 -0.6311746 0.6621105 -0.24180442 0.02757443 -0.7447685 -0.20110373 -0.69025296 -0.575475 0.10178254 -0.27907497 0.4794186 0.6781702
无 -0.2494412 -0.36943668 -0.10611532 0.271871 -0.045483485 0.17248592 -0.5023061 -1.051343 -0.76903117 0.021568784 0.2300066 -0.54745865 0.015603834 0.46672094 -0.34000477 -0.54609406 0.038118426 0.29209718 -0.21610232 -0.43494466 -0.16460131 -0.26805517 -0.5691076 -0.16116612 -0.8974185 0.34218162 -0.68071353 0.22465687 -0.25291657 -0.46712825 0.12553887 0.37026682
元 -0.598593 -0.16578361 0.53417814 -0.5136719 0.23187718 -0.06479588 0.5612595 -0.14300925 0.017427435 -0.6753645 -0.014756163 -0.007219353 0.16222422 0.38903132 -0.2749726 -0.38821486 -0.00083680166 -0.45566654 -1.0590664 0.47801226 -0.2726997 0.25940046 -0.012347281 -0.029650616 -0.14766504 0.04042091 0.5552599 -0.04758166 0.26078078 -0.20142318 0.048822958 0.75483197
更 -0.40681502 0.039012212 -0.61028516 0.55571294 -0.04025197 -0.82977736 1.3633238 -0.53873724 0.101183854 -0.0237132 -0.14217542 0.3679753 -0.05109016 -0.147207 -0.77510494 0.5988345 0.008909268 1.4016644 0.26760852 -0.29139042 -0.47146714 -0.37413388 -0.62941253 -0.005383499 -0.17208421 -0.071191035 0.012030228 0.88588536 -0.26743108 0.051865462 0.36044422 0.72852653
好 -0.22794767 -0.9062791 -0.053206295 0.25942138 -0.050534397 0.5859687 0.20346263 0.4353659 -0.15896107 0.24878642 -0.20218898 0.21605408 -0.13495973 0.23597395 0.5076074 -0.2717794 -0.0019568624 0.27136594 -0.2989802 -0.029689996 -0.28158614 0.67569727 -0.027671931 -0.04185614 -0.21690331 -0.031691 -0.6137419 0.71613437 0.23085494 0.27879116 0.22409163 0.15574592
啥 0.049087834 -0.5276362 0.31477007 -0.39284265 0.11078682 -0.1373147 -0.2224106 -0.492653 -0.33418494 -0.13003978 0.21505393 -0.049297065 0.6097836 0.84109217 0.008980477 -0.0818072 0.23208106 0.30243537 -0.37556413 -0.28782633 -0.4781995 0.5029812 -0.101576686 -0.48956794 -0.22739783 0.43097183 -0.2415301 0.33321333 0.30799392 0.31214112 -0.0387244 0.23106198
高 -0.9990853 -0.38911602 1.0688695 -0.32598647 -0.014742609 0.48875117 0.7103279 -0.0061924746 0.5390537 0.20317698 -0.19464424 -0.6590651 0.4861282 0.05937446 0.30402067 -1.1491727 -0.46720594 1.7135051 -0.12275714 0.38384125 -0.4185359 -0.36598638 0.0005261197 0.01198782 -0.159055 -0.18535188 0.3736066 0.5936316 0.16482951 -0.22342427 0.06117971 0.26363912
店 -0.02706773 -0.58062255 0.53790826 0.29359344 -0.32484534 -0.21705985 -0.6393998 -0.30425373 -0.092250496 0.5379044 0.100882284 0.563136 0.3222605 -0.2159467 -0.22924401 -1.1910295 -0.42626324 -0.7839819 -0.34886652 0.245072 0.15011169 0.15255377 -0.2730072 -0.9772166 0.05923977 0.5324068 0.4921122 0.8371356 -0.67876685 -0.38088554 0.27446648 0.32462937
新 0.028681705 -0.12883271 -0.41005042 0.9080919 -1.1293956 -0.29940665 1.1703087 -0.60462874 -0.44066364 0.44553828 -0.5355513 0.40742928 0.4546347 0.40573892 -0.65671176 -0.101794064 0.5117274 -0.12437402 -0.082040146 -0.01693584 0.009083976 -0.075062156 0.011019382 0.45485386 -0.4476709 -0.021902569 -0.10088148 0.39248246 0.047759645 0.2781575 0.20363392 0.28559625
设 0.37355897 0.24137203 -0.73296094 0.52231795 0.48019838 -0.19292879 0.56835437 -0.43330422 0.3398877 0.22753511 -0.5714979 -0.11658274 0.20114568 0.033298057 -0.6202942 -0.72262114 -0.23841748 1.1717924 -0.1904197 0.653092 -0.4047455 0.39598113 -0.8478053 -0.1562766 -0.88242674 0.94087756 0.53685886 0.070689395 -0.14644752 0.32441384 0.71288055 0.5099543
找 -0.52455914 -0.5018299 -0.015307024 0.3844769 0.5111992 -0.33387172 0.18773048 -0.2754217 -0.238911 0.05860414 0.24319187 0.12012064 -0.1994211 -0.5667677 0.64844847 -0.7739515 -0.23479295 -0.27539867 -0.16617203 0.31658 -0.69278294 0.42599237 -0.60403365 0.8237073 -0.1875676 0.65883434 0.2689998 0.68328774 -0.5622094 0.2614981 1.4685148 -0.54295874
当 -0.7509292 0.581896 -0.39397383 0.11758839 -0.021147342 -0.212935 -0.080385305 -0.41632327 -0.608242 -0.6529749 0.0742569 -0.15174869 -0.24524595 0.4324222 0.20964597 -0.53970057 -0.10110711 0.26031336 -0.15547691 0.5598393 -0.6042371 -0.0445349 -0.7629695 -0.9497136 0.5875406 0.06112536 0.026861904 0.17399286 0.80699915 0.011886107 0.15779847 0.29945523
事 0.18436491 -0.35945967 1.0482349 0.6078747 0.5135544 0.3370389 0.020301677 -0.20842922 -0.010451826 -0.22597487 0.83675057 0.21772626 0.03043705 0.6857608 -0.13684629 0.08232644 -0.07392148 0.20589253 -0.31570747 0.9295754 -0.4078708 0.37535748 -0.27628466 0.8925034 -0.57332367 -0.59506255 -0.31494352 0.40162045 -0.26030067 0.036802776 0.7205098 0.39848474
货 0.29387394 -0.2442494 0.022326823 -0.097854264 -0.3203614 -0.46300137 0.35935244 -0.19859962 -0.114864856 0.5583547 0.5271924 0.37381268 -0.47680476 0.73723847 0.286367 0.4181877 -1.1494113 -0.717752 -0.90360916 0.73785007 -0.3874494 -0.5993631 -0.3955055 0.03287311 0.22072138 0.30079687 -0.07858698 0.5690159 -0.34588173 -0.114536256 0.45716417 1.0529419
置 0.32808217 0.21547179 -0.78072983 0.545505 0.58514297 -0.07248284 0.6883292 -0.37322256 0.18539962 0.22573967 -0.5366711 -0.22722805 0.19600247 -0.067998305 -0.6356871 -0.83412904 -0.29735646 1.2219869 -0.24651277 0.76131207 -0.29607633 0.4987598 -0.9414259 -0.15694244 -0.8168173 1.0465777 0.55716836 0.023795186 -0.08307678 0.38460883 0.6801091 0.49646795
免 -0.4739074 0.6901569 0.18706886 -0.18712325 0.031011455 -0.6829125 1.0037144 -0.27449 0.25063896 -0.8952162 -0.23255663 -0.18222325 0.2791951 -0.18114527 -0.5470946 -1.3562907 -0.67650586 0.106356 -0.1045128 0.5445907 0.93494725 -0.14626375 -1.1233268 0.4359503 -0.16556978 -0.31211507 0.59916276 0.67762434 0.018972086 -0.27088946 0.3884355 0.8023824
？ 0.017783359 -0.089242876 0.122878134 0.0055963704 0.1586007 0.108349 -0.22139315 0.003976423 0.1431756 0.0038410074 0.037477072 0.092544176 -0.15429516 0.48852304 0.084820464 -0.26685622 0.14967832 0.26747155 -0.55464816 0.2958221 -0.30780914 0.122816406 -0.00068553135 0.09985647 -0.106543995 -0.17208841 0.022846377 0.4691611 -0.050041866 0.20633112 0.21593936 0.46871102
思 -0.413868 0.5628768 1.0824459 0.15328501 -0.19320399 -0.020772418 -0.17412251 -0.19247411 -0.23031539 0.021497687 0.36152515 -0.060458742 0.23753032 1.0997059 -0.3715402 -0.21665788 -0.31928813 0.6999556 -1.0900489 0.24852407 -0.77690995 0.76471204 -0.17149812 -0.1475021 -0.6680175 -0.22829215 -0.72843915 -0.59491336 0.10816274 -0.40173522 0.46038204 0.63756377
解 0.24585626 -0.02140236 -0.3760413 0.28354067 -1.3285633 -0.08214815 -0.09696035 -0.38771278 0.3504367 -0.16860127 0.100521564 1.1771679 -0.5164797 -0.30811808 -0.60413253 -0.19670177 0.6021663 1.041898 0.2644481 0.024027228 -0.8474511 0.6350517 0.478212 0.118856505 -0.7661322 0.22688073 -0.8628827 1.0090967 -0.6323007 0.4867538 0.4609123 0.46624136
变 -0.776752 -0.17726608 0.3537185 -0.023365444 0.9943916 0.09771861 1.1271837 0.31618807 -0.10173237 -0.15754935 0.46409902 -0.3918243 0.27285984 0.20140968 -0.6110073 0.6584695 -0.73378825 0.78756106 -0.08490798 0.05232523 -0.83508795 0.04239215 -0.2952706 0.37217212 -0.2301731 0.25540835 0.1061881 0.6433137 -0.57034475 0.17273761 0.086026184 1.1038921
身 -0.4344069 -0.00916083 -0.43212894 0.7951188 -0.8088877 -0.61806124 0.3838592 -0.58892876 -0.27577823 0.41594985 -0.4241267 0.18004805 -0.05721048 1.1494267 -0.42484257 -0.16175091 0.095421605 -0.23848972 -0.068907835 -0.72047275 0.19753431 0.9455053 0.40721202 0.57491404 -0.3529029 -0.20616531 0.54957014 2.047877 -0.3345164 -1.0119418 -0.41357478 0.07507116
密 -0.1942231 -0.04090765 -1.1638502 0.97934526 0.017259002 -0.6026932 0.4884943 -0.9856719 -0.040963482 0.8786253 0.17819968 1.1102824 0.4878634 0.5203258 -0.45933694 -0.93591344 -0.08584292 1.0870951 -0.6042754 0.44023392 0.26658356 -0.17499618 -0.64307994 0.65287983 -0.025718218 0.0762179 0.57508636 -0.17228651 -0.17477615 0.25368285 1.3446915 -0.53662527
明 -0.29033995 0.3386913 0.13949312 -0.03951746 -0.56663746 0.2069655 -0.48742646 0.04002851 0.6802986 -0.8020643 -0.10080237 0.49511236 -0.14753465 0.6424515 0.5433337 0.06486048 -0.021972945 -0.32618016 -0.3750306 -0.014523572 -0.779895 0.32619718 -0.57045895 -0.18930908 0.068485446 -0.027984222 -0.4346959 1.3446712 0.08407248 -0.37624 -0.28880426 -0.3132853
对 -0.40772322 -0.20474157 -0.023468548 0.5427874 0.22299883 0.5840542 -0.03302005 -0.1513709 -0.5891885 0.003987281 0.30549896 0.31971997 -0.53215206 0.009848597 -0.058109347 -0.41756755 -0.48814762 0.30669436 -0.44123068 -0.64474 0.036743987 0.14851347 -0.6583798 0.5352242 0.2781805 -0.10625566 -0.21717788 0.6145097 0.37635335 -0.082741074 -0.07108249 0.34722185
降 -1.2858888 0.4623398 0.22983849 -0.7096632 0.3754932 0.52041537 0.6536243 0.023484234 0.08514762 0.71979964 0.2383959 -0.33174014 0.42675403 -0.43278107 0.20418915 -0.32038832 0.08943331 1.6749897 -0.5207267 0.4399004 -1.2010285 0.74789566 0.79468006 0.896207 -0.6016694 0.376949 -0.052492253 0.9697469 -0.23721515 -0.15416788 0.0094200615 1.2458255
验 -0.21902955 0.081691496 0.2798208 1.2244953 -0.6189319 -1.00302 1.2968457 -0.52183723 0.21389309 0.66680384 1.6174761 -0.89855593 0.39871392 1.492494 -0.53009963 -0.41381204 -0.19806004 0.25101674 -0.34021834 -0.14779125 0.0859558 0.027899249 -0.75224835 0.19504316 -0.56842625 0.11292988 1.1098324 0.7855247 -1.1001079 -0.39271334 -0.081136346 -0.37853009
未 -0.18829343 0.2259185 0.028751226 0.16240397 -0.34779853 0.1824032 -0.23186134 -0.65536255 -0.62842286 -0.1719248 0.21208064 0.3188315 -0.016787795 1.0511365 -0.2252812 0.23006701 -0.64440095 -0.35663718 -0.07583156 0.12977509 -0.29198393 -0.13121192 -0.9480665 0.1265938 -0.35292116 -0.016656933 -0.14499825 0.41160893 0.5634121 0.32852533 -0.29036376 -0.088916756
然 -0.5909368 -0.10701624 0.044057224 0.0669314 0.08752568 0.15235394 0.42823002 -0.12326004 -0.9329901 0.1696918 0.026272597 -0.37919572 -0.12062127 0.18296854 0.0028963143 0.47267053 -0.06195927 -0.44120777 -1.1110857 0.2171511 -0.2550562 -0.29018873 0.36581546 0.17234899 -0.09979291 0.37686038 -0.48232764 0.5339563 -0.06644157 0.46797904 0.38971674 0.60976994
否 0.15181641 0.33242285 0.0520523 -0.040000405 -0.34632918 -0.104823425 -0.48385948 -0.41526356 -0.18812431 0.1823081 -0.5607331 0.27376398 0.37248284 0.3526542 0.05326597 -0.16992655 -0.31925473 0.10213689 -0.23332813 0.028337508 0.16997032 -0.5280892 -0.47265223 -0.3169231 -0.06914583 -0.20969199 -0.18999387 0.9513953 0.7384695 0.50417507 -0.0066659036 0.31258127
件 0.32240906 -0.0036568565 0.6943101 0.8551235 -0.95768756 -0.41578847 0.0341286 -0.92116714 0.45575058 -0.10298593 0.10090861 0.31443048 0.43913496 0.978531 0.034548204 -1.0593731 -1.1535461 -0.15640567 -0.41156405 0.17400205 -1.0612805 -0.52960616 0.687208 0.16319567 -0.08873906 0.18998417 -0.54010916 0.32406756 0.0029966452 -1.1724794 0.09031769 -0.19258672
积 -0.6052061 -0.16916758 -0.094452165 -0.6343943 -0.16917026 -0.0015370647 1.0880642 -0.14035821 0.41130322 -0.5846852 0.15129764 0.36526784 0.9600555 -0.19188891 -0.7480638 -1.2993089 -0.7540147 -0.19962642 -0.23843725 -0.6824554 0.11787028 -0.65719044 0.013558278 1.0565828 -0.038807098 -0.44045702 -0.10193853 0.9356279 0.12452399 0.22317553 -0.22408085 0.05936218
十 -0.2809251 0.12640208 0.60072744 -0.66612345 -0.3962729 -0.4629803 0.23516554 0.090793654 -1.1447392 -0.57157636 -0.17856549 -0.48388934 0.1428575 0.19238135 -0.309316 -0.5048744 0.21121223 0.071114264 -0.2948602 0.51448685 -0.3539053 0.03740827 -0.20321798 0.23119165 0.32899722 -0.22001223 0.76703066 0.8536461 0.17873426 -1.0555449 0.62340814 0.6740674
登 -1.0969299 -0.8763262 -1.0796874 1.1805432 -0.8120045 -0.08595823 -0.010847423 -1.2982506 -0.032811243 -0.5662161 -0.22574385 0.05082884 0.08825093 0.5182234 0.047610406 -0.0011003955 0.3433708 0.7269321 -0.45930174 0.13657126 -0.15938954 0.5255075 -0.2668554 0.16323493 -0.06642361 -0.47123623 0.5968499 -0.0016370754 -0.8879061 0.5468188 1.0165104 -0.5032902
又 0.106229536 -0.094632536 0.01967974 0.22910611 0.017722365 0.27767435 0.28414407 -0.22973008 -0.19185127 -0.13254008 0.07784022 -0.22108829 0.16928361 0.43144584 -0.02732295 0.5286693 0.051950123 -0.58211774 -0.87117213 0.58634305 -0.28943372 0.08968455 0.07534706 0.19405147 -0.17186669 0.35896823 -0.3292091 0.7349883 0.19156003 0.28118524 0.27870896 0.32685688
进 -0.3666868 -0.29261735 -0.009725872 0.83308995 -0.12991822 0.42766857 0.16073133 -0.3094262 0.20555753 -0.15306516 -0.6004031 -0.46764427 -0.06926689 0.6166688 -0.19011718 0.0697447 0.17155007 -0.19193986 0.17194742 0.52439004 -1.2082198 0.022282394 -0.47301176 -0.010016761 -0.033347428 0.037818164 0.013578985 0.37338838 -0.21822797 0.34732687 0.56935036 -0.28156313
让 -0.2881496 -0.27380738 -0.20081086 0.51323056 -0.28502092 0.4211823 -0.14151776 -0.030213457 0.08310954 -0.2650676 -0.3510682 -0.3579958 -0.15188858 0.17366311 -0.0061027263 0.14756767 0.116126776 0.6097308 -0.67282003 -0.010016607 -0.32618243 0.3302128 -0.031710975 -0.17766522 -0.35265055 0.5816648 -0.2385723 0.63258326 -0.11691735 0.19362362 0.58213735 -0.38425672
你 -0.2983629 -0.18686938 0.27632383 0.28965324 -0.68659997 0.34763724 -0.5817065 -0.47282317 0.3195183 0.34539896 -0.37079817 0.09621165 -0.011926958 0.4780312 0.9434671 -0.50414366 0.15221138 0.12776567 -0.77978045 -0.24101315 -0.62892705 0.2960636 0.29883277 -0.12637784 -0.2403465 -0.26852062 0.11966758 0.3780845 -0.030488782 0.6027195 0.54249203 0.019717902
服 -0.17351957 -0.15708394 0.510394 0.104968585 -0.76420754 0.010728985 0.14464463 0.35746557 0.58567053 -0.26194328 0.40997323 0.8277557 -0.021636378 0.13791554 0.23491268 -0.38539165 -0.74434775 0.040655192 -0.96158856 -0.28041273 0.0876326 -0.076248266 -0.008351091 -0.49652803 -0.14882241 0.3417474 -0.5471664 0.21745841 0.27512366 0.22672172 1.1174511 0.5440787
包 -0.10877384 -0.1811946 0.06728629 -0.42839658 -0.039693926 -0.11997824 0.39465797 -0.25568718 -0.2911474 0.2806124 0.20343055 0.008488805 0.7733516 0.080010094 0.37030837 -1.0302522 0.13454512 -0.5803493 -0.954562 -0.2523016 -0.32322723 -0.3402845 -0.9557402 0.54008335 0.4031369 0.20681904 0.90524155 0.047342148 -0.25239372 -0.11940242 0.57309645 0.7030711
票 -0.7976372 -0.8286128 -0.4054269 -0.4213349 -0.7983803 -0.22064576 0.5154019 -0.25410336 0.15054247 -0.3074799 0.6462768 0.13643935 0.44769683 -0.3544789 -0.50278044 0.7602796 -0.24039924 -0.8465245 -1.2402247 -0.044523675 -0.48584282 -0.600671 -0.7135257 -0.2331979 0.84426486 -0.15916196 -0.5781448 0.84943193 -0.6703264 0.26198024 0.7546244 0.1969489
帐 -0.1208471 -0.2580592 -0.000994874 0.8121079 -0.62401074 -0.6287348 0.009013836 -0.3445859 -0.6471283 -0.5779296 0.027350245 0.82841086 0.17181966 0.14242628 0.38730958 0.3625528 -0.21989746 0.14856026 -0.42852253 0.07713501 -0.49480098 0.16865852 -0.4650791 0.76267195 -0.42332593 -0.082731545 0.45680076 0.13485958 -0.0077347425 0.4181274 0.3157581 0.08740271
问 -0.29245296 -0.5960135 0.008257847 0.4260542 -0.5177322 -0.364253 -0.44996598 -0.28762248 0.18589976 -0.04512419 -0.13514984 -0.038025267 -0.32324985 -0.022420984 0.3937337 -0.62348455 -0.40010265 0.4477489 -0.47447905 -0.078251116 -0.46073496 1.1160717 0.2320897 -0.03155277 -0.43845397 0.056635275 0.05238025 0.15337653 0.30672505 0.38730592 0.17293724 0.5238853
负 -0.6484375 -0.60220486 -0.47543758 -0.69674987 0.09393389 1.024225 0.27978805 -1.4568819 -0.24521756 -0.029691342 0.6214714 -0.33054996 0.2744278 -0.06659387 -0.6766089 -0.55349237 -0.47878623 0.8781433 -0.3671205 0.6030558 -0.6168585 1.326974 -0.38831678 0.6050021 0.34273797 -0.32866752 0.23981091 0.52195436 0.36528894 0.48256332 -0.32404193 -0.39669546
知 0.24010241 -0.58941567 -0.17696668 0.328125 -0.52196807 -0.3064968 0.13442335 -0.38365 0.62470716 0.28958157 0.46958762 -0.8354884 -0.1619889 0.39848122 1.1800436 -0.8820686 -0.16845562 0.27420157 -0.8476716 0.28164822 -0.40395004 0.3356612 0.35327303 0.30483857 -0.38873655 0.8087731 0.19795783 0.4667393 0.21757104 -0.1668358 0.036553476 0.9493625
笔 0.25400728 -0.14923042 0.05461606 -0.26432204 -0.08377606 0.34369907 0.23509611 -0.070991896 -0.29512614 -0.95560867 -0.037220947 0.5276114 0.33987507 0.26183668 0.11050204 0.06726427 -0.7650338 -0.5453036 -0.9032272 0.72933835 -0.14921823 0.4977947 -0.3793345 0.0136932405 -0.2071187 -0.28133762 1.0374906 0.71569395 0.20433646 -0.08040537 0.016475726 -0.050487828
本 -0.7942037 0.77996707 0.07264923 0.31696337 0.3608419 -0.16934545 0.32455796 -0.17123184 0.086131215 -0.258997 -0.31559914 -0.26117495 -0.40897307 0.60870355 0.38868606 -0.10361474 -0.5185231 0.7305194 -0.66485745 -0.24895322 -0.07191579 0.052218296 -0.41661984 -0.08108183 0.32803264 -0.4061445 -0.045758884 0.76868576 -0.37435922 0.31491488 0.056807812 0.15836419
超 -0.52504545 -0.5028937 0.2135472 0.078680255 0.23867534 0.3120523 0.55511564 -0.56689644 -0.8208499 0.2694588 -0.23478131 0.30772954 -0.31044692 0.07111974 -0.6846641 -0.8117345 0.08915945 -0.63775367 -0.07949929 0.7689312 -0.544211 0.42629418 -0.30175805 -0.45067963 0.37001365 -0.24588543 -0.046345863 0.2185005 0.19742356 -0.5164259 0.080955625 0.40764248
扫 -0.2443877 -1.0731034 0.59619147 0.7373444 0.16463031 0.19859153 0.52717155 -0.12082327 -0.5461103 0.28410864 0.06832634 0.4508495 0.31425104 0.16989496 -0.050589748 -0.40791163 0.085620694 0.70098674 -0.6276372 0.29893768 0.17953502 0.008690862 -0.58633167 -0.82557404 0.5922802 0.61032814 0.44313616 0.52823794 -1.2139437 -0.8180322 0.92913294 -0.20251775
打 -0.38878986 -0.20317248 0.00016953026 0.6607881 -0.28283688 0.3731152 -0.14667879 -0.36774287 -0.45728773 -0.34673986 0.5312161 0.60567117 0.17903328 0.1471437 -0.07018339 -0.51396906 0.28552654 -0.08958866 -0.09000015 0.22123368 -0.5963762 0.4702183 0.17083105 -0.62037414 -0.22523308 0.26477438 -0.32560185 0.692774 -0.40432152 0.6531128 0.528867 -1.0651761
系 -0.57553154 -0.07745948 -0.03167413 1.1442106 -0.70446736 0.8489055 -0.2406339 1.0227964 -0.630402 0.12759925 0.48361105 0.13048822 0.70552343 1.0871042 0.07007155 -0.0046934434 -0.2636785 0.3290818 -0.033343356 -0.505887 -0.7767136 0.5393617 0.13079387 0.011619751 -0.30853906 -0.20962586 -0.06896162 0.14028956 0.50892115 0.7435648 0.7615707 0.37545213
部 0.010177942 0.66399467 -0.35866666 -0.0037987866 -0.16941842 -0.019985171 -0.2472569 -0.42806825 -0.19777267 -0.6203001 -0.39413086 -0.7276354 -0.11609527 0.20256232 -0.41533452 -0.1968176 -1.0413259 0.38152307 -0.78858423 0.8119839 -0.21667409 -0.4021472 0.04737177 0.076662794 -0.21105748 -0.38335094 0.058547158 1.3090423 -0.73323345 0.20116039 -0.4545018 -0.1900182
麻 -0.5750799 -0.547939 -0.44280574 -0.25187254 -0.9083385 0.72282326 0.18503778 0.29194614 0.013473779 0.19919519 -0.36865216 0.42787838 0.7567614 0.048413638 -0.23270044 -1.3617489 -0.34800386 0.7062184 -1.3039035 -0.97135466 -0.02585649 0.30732533 0.8599251 1.2759141 -0.09362693 0.035310335 -0.3418957 0.70121896 0.85522103 -0.034499962 -0.3023012 0.030341746
短 -0.2517063 -0.20549557 -0.47201762 0.25081533 -0.6112838 -0.49055877 0.4488348 0.100502156 0.44886914 0.46402752 1.432068 -0.5799313 0.6436494 0.58145505 0.47975037 -0.2507182 -0.33540633 0.6102236 -0.93116844 -0.29493994 0.2604626 0.10425822 -0.9330823 0.23467848 -0.6016901 0.40653703 0.7412978 0.9648628 0.8203681 -0.1442516 -0.49448374 0.025595227
认 0.92075306 0.53600395 -0.057217084 0.93314195 -0.5231085 -0.14744514 0.52497023 -0.16553742 -0.16284403 0.5927453 0.038355183 0.1648608 -0.59686744 1.3198711 -0.15350583 0.17914116 -0.68166727 -0.32739002 -1.0526544 0.17294678 -0.11909154 0.10346939 -0.71606135 -0.11093261 -0.5108107 0.1772466 0.11735914 0.6316494 -0.70480675 -0.95577025 0.21109302 0.67644465
欠 -1.0278342 -0.30622724 -0.03841081 -0.3024943 -0.27447805 0.46876216 -0.17356212 0.07170038 0.60820585 -0.63471454 0.23091006 0.08309026 0.08090204 0.42509028 0.71981746 0.006605242 -0.55404353 0.14862671 -0.5237303 0.6897107 -0.7163925 0.07218074 0.121226504 0.31648138 0.2808455 0.34441832 0.34394884 0.66677624 -0.11625609 0.5039824 -0.23829374 -0.05863244
方 -0.13039805 0.12891679 -0.5436605 0.41182277 0.98770684 -0.4444326 -0.8556624 -0.5619151 -0.22139008 0.7037669 -0.18704739 0.3078974 0.12783577 0.4400789 -0.020250168 -0.44249535 -0.711114 0.34901437 -0.53833216 -0.1103932 -0.24225368 -0.08922517 -0.8598889 -0.043672323 -0.1213535 0.24780874 0.1648816 0.57228494 0.016532304 -0.7125531 1.0206497 0.14087893
品 -0.24424858 -0.6599991 0.19120783 -0.41172248 0.21709341 0.03172197 -0.25804713 -0.41225764 0.034135275 -0.09180482 -0.3773602 0.1861271 0.039737374 0.28248253 -0.47367117 -0.8516187 -1.6788572 -0.34236017 -0.42458224 0.17776246 -0.08960448 -0.45142093 0.00892007 -0.25351077 0.28602493 -0.7062936 -0.238939 0.36416733 -0.5096922 -0.039375335 0.3687738 0.8234733
值 -0.9452983 -0.47252062 -0.34339306 -0.47815546 -0.05215558 0.6850891 0.44268447 -0.109746754 0.3348886 -0.7694223 0.78424 -0.0036921785 0.43742543 -0.3472608 -0.6305935 -1.0614276 1.1837915 0.1853885 -0.68941873 0.079234384 -0.33428594 -0.10943697 -0.3089016 -0.6478649 0.054759603 0.073966585 0.22049795 -0.034110326 -0.3634017 0.4915082 0.9316544 0.63852465
物 0.012276096 -0.5646472 -0.21199073 -0.5620192 -0.25614938 -0.3813498 -0.30807784 -0.60104585 -0.09365478 -0.020386815 -0.32148188 0.27448964 -0.052493386 0.022441335 -0.71200967 -1.0098691 -0.7798833 -0.4226989 -0.20012347 0.37874705 -0.46655643 -0.54143006 -0.92790973 -0.21416396 0.6097367 0.06951793 -0.27020958 0.39600208 -0.72553235 -0.26754326 -0.1416416 0.89404005
条 0.013069112 -0.4097819 0.52408147 0.8961919 -0.8764925 -0.3388036 0.023006443 -1.1121765 0.5444295 0.23524413 0.22818227 0.31210357 0.49862683 1.2736063 0.21166936 -1.4027826 -1.1709926 0.56260014 0.013790522 0.4634589 -1.2565961 -0.4195781 0.38747364 0.08309049 -0.050822187 0.84989053 -0.41433248 0.007348059 0.34977025 -0.9603012 0.07075931 -0.53070724
呀 0.14820303 -0.46785274 0.29527676 0.076955505 0.06593569 0.008057648 -0.012501546 -0.33710408 0.14535666 -0.015988061 0.14425305 0.054454826 0.22963677 0.6565919 0.055931646 -0.2801575 0.09728812 0.055724397 -0.3694363 0.3911287 -0.3241058 0.2617343 -0.09888175 0.36567566 -0.16035044 0.24277873 -0.14080945 0.39403942 0.018798947 0.32859892 0.1350704 -0.025090953
外 0.041522767 -0.17729618 0.12343921 1.0427277 -1.1695446 -0.696346 -0.47001386 -0.17801978 -0.7239262 -0.2790022 -0.21261765 -0.48650405 1.1402787 -0.2740334 -0.21994594 -0.0016818033 0.07155043 -0.35109717 -0.7661422 0.07229454 0.23734282 0.4969132 -0.32121873 -0.29114476 0.056890488 0.21614897 0.82884526 0.6442898 -0.7641388 0.68456554 0.21668455 0.42108595
重 0.7552556 0.0032708258 -0.6027686 0.6365441 -0.9430694 0.28090733 0.97090554 -0.5696189 -0.17040059 0.4484358 -0.47381744 0.5681801 0.70012254 0.28026924 -0.60090536 -0.09536034 0.54015106 -0.057125486 -0.3964659 0.20835704 -0.21760233 -0.031870805 -0.11306291 0.24607965 -0.53744256 -0.0027052371 -0.6280872 0.610956 0.2626944 0.15452707 -0.038612653 0.34916836
调 -0.9203516 0.2257101 -0.19178846 -0.23826128 0.5286696 0.35708195 1.0807232 -0.26929116 -0.5435425 0.78081775 -0.64425063 -0.492738 0.20965582 -0.25184974 -0.11176999 -0.044300836 0.67259187 1.4688005 -0.13784923 1.0740147 -1.3254863 0.84927475 -0.12807092 0.4420949 -0.53826064 -0.106901415 0.513027 0.91112083 -0.7426243 0.16121686 0.390318 0.27457845
够 -0.35062936 -0.76025575 0.17707047 0.31270546 -0.1023697 0.49720964 0.36398417 -0.6524206 0.2981098 -0.120783634 -0.10970754 -0.5415119 -0.5794248 -0.044257186 -0.94358844 -0.62741077 0.007941829 0.47480503 -0.36547837 0.6347287 -0.6718328 -0.5308344 0.036173705 0.28770667 -0.036170684 0.30848974 -0.35903692 0.24317868 -0.5477122 -0.2880086 -0.31604993 0.28122658
选 0.0059037735 0.29252693 -0.6511485 -0.20627713 0.81536925 -0.6007103 0.06332155 -0.29369226 -0.6324575 -0.08804604 -0.68839955 0.09714211 0.29510316 0.3112121 -0.5158398 -0.34229195 -0.5946446 0.69355136 -0.62918246 0.3109204 -0.35121414 0.6015506 -0.48413518 -0.20457213 0.03628366 0.9863388 0.22470987 0.52873707 -0.34014252 -0.5904961 -0.039496377 0.45126176
吧 -0.16962005 -0.11492308 0.18525492 0.22687343 0.26773483 0.37978768 -0.30387524 -0.2108512 0.08408387 0.16166995 -0.030623745 0.09986905 0.19816786 0.23728961 0.23935728 -0.25832415 0.09417682 0.1746989 -0.30747062 0.057844047 0.079349816 0.033826984 0.12135054 0.24768992 0.06574761 -0.040644053 -0.195476 0.9425065 0.40373084 0.39081067 0.2618027 0.4849356
权 -0.16947171 -0.8853173 -0.91773516 0.013003015 -0.81703 0.7314448 0.417458 -0.27774093 0.2918211 0.35941258 -0.25421116 0.6634876 0.7019215 0.4423875 -0.910241 -0.71494544 -0.25793096 0.14301938 -0.07707344 -0.55844325 0.2511791 1.2401973 -0.14311296 0.57381654 -0.90448684 0.07046676 -0.4887096 0.2154684 0.29265964 0.10307082 0.61066604 0.43868777
脸 -0.8362924 -0.33437604 -0.38460758 1.4724511 -0.12081249 0.22633944 0.3788513 0.35738373 0.24945812 0.93217623 0.17116086 -0.17716083 1.3729951 2.088615 -0.23161198 -0.52300733 0.07779079 0.995744 -0.31657746 0.3992011 0.75043887 1.2277253 0.030459078 -0.83594644 -1.1413128 -0.24201138 0.026010027 1.4017333 -1.8065549 -0.8321432 0.5749953 -1.310815
入 -0.18701734 -0.20439729 0.18046662 0.6591791 0.10549084 0.37995973 0.4691994 -0.5947376 -0.16245075 0.06193772 -0.43296716 -0.09381111 -0.13132557 0.6095154 0.1645195 -0.22020088 -0.2579571 0.3752368 0.038726207 -0.046349466 -0.6274391 -0.5830228 -0.78681713 -0.061799034 -0.25610802 0.15449853 0.7676203 0.14986537 -0.48937663 0.8390234 0.67387193 -0.14077847
长 -0.31368592 -0.23892651 0.5601415 -0.28181303 -0.41984838 -0.3741726 0.88725394 0.16089542 -0.7101535 0.23171623 0.2672048 0.8223357 0.83991945 0.5670387 -0.010228022 -0.27126017 0.11183384 0.8618006 0.17915787 0.59723157 -0.5827386 -0.1474938 -0.44382423 0.13133031 0.18061738 -0.015932206 0.13515364 0.65602654 0.723351 -0.0552469 -0.8155288 0.46995512
芝 -0.75084436 -0.5127457 -0.60564715 -0.3894796 -0.74921876 0.5777153 0.41257343 0.33465603 -0.02189119 0.22856946 -0.14755441 0.45733085 0.8198629 0.3510721 -0.55447793 -1.2041912 -0.3367794 0.7303465 -1.1500828 -0.9002473 0.22539951 0.27465305 0.68987966 1.1933938 -0.12443419 0.1877702 -0.42572877 0.66172606 0.92740387 -0.087202035 -0.3815522 0.19077322
制 -0.48076555 -0.28333244 0.80371815 0.6348652 -0.39074624 1.1081371 0.07019322 0.8704359 -0.51461256 -0.21104802 0.17436264 1.0098847 -0.16999584 -0.0840239 -1.1935514 -0.5196907 -0.070500724 0.65563446 0.087881066 0.555679 0.027639039 0.48546904 -1.1328311 0.021529986 -0.43846363 0.11003313 0.40487522 0.22762603 -0.2796598 -0.07058871 -0.31990924 0.4546132
中 -0.21063538 0.636556 -0.109168105 0.5583633 0.1618449 0.1540553 -0.28644422 -0.3308048 -0.23757416 -0.37935594 -0.19520885 -0.044322584 -0.26027188 0.448129 -0.38390276 -0.42195034 0.22091809 -0.73871565 -0.021754172 -0.0062762387 -0.50580114 0.009731572 -0.5886264 -0.43215522 -0.44371215 -0.3785309 0.12815943 0.3534348 0.23284383 0.20358217 0.10201171 0.6303048
己 -0.012968763 0.19630805 -0.13798195 0.4878539 -0.20232439 0.50027645 -0.23118523 -0.06460604 0.14540967 0.39475346 -0.39337462 -0.20989832 -0.13918546 0.29495293 -0.03702345 -0.0077388696 0.36878467 0.23362166 -0.3813613 0.18784231 -0.40472904 -0.18705404 -0.2813554 0.13801461 -0.74700123 0.51863146 0.36282867 0.6344725 0.4549016 0.36342648 0.3352074 0.68086964
红 -0.15652354 -0.4094993 0.077836126 -0.53581595 0.009990176 -0.051096916 0.46744466 -0.2172543 -0.27171046 0.24505512 0.12314947 -0.017399762 1.2998616 -0.10819457 0.36276007 -1.0206498 0.072050236 -0.7517067 -1.0283734 -0.23777106 -0.22819081 -0.2932513 -1.1226754 0.615357 0.4544769 0.49443242 0.8305192 0.14840348 -0.35616446 -0.45256826 0.6800326 0.6922264
得 -0.17377096 -0.23292497 0.11652103 -0.08789639 -0.081817396 -0.0825109 0.60318065 -0.4371393 -0.18524659 -0.14019527 -0.047706496 0.30812308 -0.41787165 0.3267404 0.1553209 -0.67274886 0.17469743 -0.1099233 -0.36633322 -0.064642854 -0.19321892 0.25225747 -0.24559544 0.44514105 -0.4668011 0.18978468 0.1870966 0.2800605 0.15343611 0.21779528 0.104314566 0.022738475
询 -0.14255954 -0.12361486 0.29619566 0.059943154 -1.1113948 0.0143898595 -0.1155829 -0.34614834 0.56374204 -0.8388588 -0.70255464 0.26172346 -0.706382 -0.28547654 0.69355303 -0.86218816 -0.978583 0.6904847 0.10700291 0.22690146 -0.86016893 0.2757155 -0.5258372 0.47225747 -0.62090117 0.33058482 0.601833 0.6120592 -0.11402484 0.16431528 0.10485035 0.089241795
同 0.18605314 -0.054731432 0.701109 0.96285725 -0.528388 -0.52498233 -0.1734297 -0.08145632 -0.17018412 -0.11701019 -0.16071162 0.8007289 0.21003358 0.42494842 -0.46536553 -0.16996424 -0.14142579 0.59230095 0.38518342 -0.31850043 -0.030027024 0.59884137 -0.37025136 0.028718552 0.32664165 -0.15383328 -0.0719479 0.50762707 -0.44366902 -0.45504478 -0.1390209 1.3153093
原 -0.39076492 -0.08379849 0.8600011 0.68861115 -0.043845374 -0.39316598 -0.080086306 -0.8969612 -0.07600822 0.47955254 0.47382754 -0.42977768 0.2969806 0.45558843 0.104508854 0.43221134 0.16924687 0.586947 -0.7887571 -0.01203381 -0.4181163 0.01685994 -0.13433856 0.43972686 -0.47359824 -0.4887153 -0.59334207 0.34128287 -0.47058147 0.13838905 0.013417549 0.68409854
年 -0.38364547 -0.24507384 0.17921709 -0.17719689 -0.295805 0.07047157 0.09089637 0.25310773 -0.22337833 -0.30527705 0.14813659 0.25085413 0.33398223 0.3737528 -0.33061126 -0.37636974 0.32095772 -0.082377724 -0.29808587 0.55188763 -0.25027636 0.5014171 0.5671955 -0.10699878 -0.22770268 -0.61107713 0.28672087 1.0195752 0.1632894 -0.41435328 -0.77357143 0.53560776
小 -0.68847233 -0.36380246 0.1751324 -0.17601359 0.31353107 0.29530275 0.6614465 0.04941443 -0.77229625 -0.09417467 -0.5332651 0.8311895 0.1180573 -0.15570731 0.029166786 -0.0022292037 0.42228812 -0.5800317 -0.4004076 -0.03522644 -0.3526165 0.61205775 -0.4959435 0.029601568 -0.5521524 -0.09805064 -0.744239 0.5863869 -0.092412695 -0.1665903 0.1860727 0.38638642
按 -0.47338173 0.24604754 -0.2933202 -0.49241444 -0.011030249 -0.112615466 -0.007467386 -0.022818977 -0.07752541 0.18865667 0.10714775 0.02033466 -0.4689214 0.7743233 0.255713 -0.045203768 -0.32762122 0.668129 0.10299509 0.50174 -0.6023595 0.30086368 -0.5875159 -0.12303474 0.032844525 0.13266972 -0.06096888 0.7612979 0.19293661 -0.343117 -0.043167617 0.70798534
接 0.17732604 -0.045264095 0.16510466 0.651681 0.012591348 -0.06284568 -0.348143 0.34084794 -0.34885237 0.39152166 0.289815 0.043930843 0.2357865 0.4149194 -0.35995802 -0.18381138 0.13974623 -0.1346922 -0.303306 0.2727965 -0.72997344 -0.4042398 -0.13157082 0.28273124 0.7323668 0.33297017 0.30977142 0.6588962 -0.24575856 0.9926382 0.62091506 0.15239333
友 -0.25122198 -0.14000976 -0.23930587 0.25809035 -0.67327404 0.6238597 -0.4602144 0.10259719 -0.18374561 0.88048965 -0.5250521 -0.020829478 0.84161276 -0.50256306 0.2725417 -0.6305539 -0.18145253 0.300191 -0.38113803 0.1054533 0.060770962 0.51388 -0.5397808 0.5119028 0.10720523 0.62039685 -0.64218026 1.4480839 0.52765304 0.032883182 1.9259741 -0.63720804
他 -0.30851883 0.22155505 -0.045848534 0.5251461 0.055041544 -0.12982835 -0.8779287 -0.36862856 -0.074563414 0.38513908 -0.21988478 0.020424884 -0.34461996 0.24531914 0.25869194 0.030161412 0.025418412 0.09729343 -0.90739256 -0.45089817 -0.13312839 -0.10478777 0.07671154 0.026556408 0.21882653 0.394136 -0.07673445 0.8266093 -0.19021776 0.16053258 0.79538184 0.5765431
务 -0.3780921 0.13503124 0.4718768 0.19173285 -0.5580734 0.34349886 0.017329784 0.49526238 0.6676292 -0.086619 0.6146075 0.43117505 0.12143809 0.34539327 0.015009945 -0.74015707 -1.142247 0.19134478 -0.64720374 -0.2045894 0.5556911 0.02467641 -0.2980942 -0.4800673 -0.39278018 0.43957135 -0.3009511 0.2626702 0.2551871 0.25860423 1.0883389 0.5299603
合 -0.096263334 -0.23914774 0.479575 1.1302702 -0.764913 0.10933905 -0.26953307 -0.54804623 0.034704644 0.06514087 0.34543347 1.2280811 0.020673476 1.0436981 0.18968596 -0.7014614 -0.97706753 0.6639043 0.18685652 -0.045443024 -0.94502825 -0.7173382 -0.30650502 -0.12864436 -0.38682202 0.38986498 -0.4015636 -0.35539487 0.011109653 -0.32856742 -0.046596583 0.36122698
维 -0.49488285 -1.2318327 0.28587785 0.70059943 -0.025874926 0.057408813 0.3917026 -0.17986223 -0.2639513 0.75920963 0.56981176 0.62398696 0.595138 0.25745755 -0.0948396 -0.6096901 -0.15655398 0.5186377 -0.11368915 0.5576727 0.23437364 -0.49282163 -0.59905756 -0.62336093 0.08155489 1.1284046 0.7831943 0.77125543 -0.4264175 -1.5362638 1.5514932 0.1285896
刷 -0.08716975 -0.3663481 -0.09707771 0.5696561 -0.23572254 0.34539542 0.6853669 0.07589973 0.09052166 0.16296613 0.08766401 0.09507591 0.49615145 1.1687196 -0.4794847 -0.38824633 0.2626747 0.31355533 -0.35321555 0.1302172 0.19895017 0.485072 -0.16608943 -0.8167752 -0.39411584 -0.017356738 0.065021746 0.55379117 -0.99174887 -0.36568183 0.15471125 -0.27254742
押 -0.9643427 0.3610316 -0.049232405 -0.6109197 0.35243553 0.4556902 0.75381905 -0.45279294 0.12453817 -0.46262354 0.13635987 0.92304915 1.085144 -0.33118027 -0.047919862 0.09511601 -0.51836365 -0.38425556 -1.8481096 0.26878378 -1.297374 -0.02125179 -1.0133033 0.43495923 -0.018304182 -0.35400623 -0.56864095 -0.09300658 -0.8261435 0.28491524 0.6528169 -0.10848841
发 0.0879395 -0.018424213 0.21189585 -0.107337594 -0.49707866 -0.21214475 0.6164146 -0.14776595 -0.17022939 0.3537005 1.0446789 -0.32922626 -0.436178 0.20329046 0.65253526 -0.18167035 0.13475075 -0.40161186 -0.880576 -0.6821334 -0.4103646 0.06802958 -0.45436096 -0.34060964 0.28383994 -0.05649473 0.22188257 1.0068574 0.080334246 -0.0033527226 0.38103652 0.23704636
先 0.04596304 0.82647777 -0.25210917 0.22253905 0.739644 -0.39664134 0.13152072 -0.49817324 -0.13619332 0.53958535 -0.5701389 -0.043288402 -0.018260011 0.14697748 -0.32290137 -0.3919603 -0.33448285 0.39918166 -0.75745016 0.5175657 -0.1872233 -0.060109094 -0.038940698 0.037645046 -0.03656003 -0.3191377 0.15442714 0.84436816 0.022261301 0.24325803 0.12229981 0.37626544
掉 0.06756042 0.32220164 -0.38514748 0.61949974 0.06218691 0.32047254 0.3209885 -0.25683722 0.26610392 -0.2686168 0.051802497 -0.21774022 0.35595003 -0.2575659 0.23327814 -0.1082727 0.16705376 0.032114547 -0.6347749 0.23058796 0.2616002 0.3383638 0.16505593 0.6719014 -0.6483203 0.1187901 -0.29392198 1.1786002 -0.106330335 0.7397257 0.30281398 0.3269975
